svm_type nu_svc
kernel_type rbf
gamma 0.00132275
nr_class 2
total_sv 273
rho -25.2701
label 1 -1
nr_sv 115 158
SV
419.021943686686 1:0.0147197 2:0.0147197 3:0.0147197 4:0.0147197 5:0.0147197 6:0.0147197 7:0.0147197 8:0.0147197 9:0.0147197 10:0.0013191 11:0.0013191 12:0.0013191 13:0.0013191 14:0.0013191 15:0.0013191 16:0.0013191 17:0.0013191 18:0.0013191 19:0.00119906 20:0.00119906 21:0.00119906 22:0.00119906 23:0.00119906 24:0.00119906 25:0.00119906 26:0.00119906 27:0.00119906 28:0.333003 29:0.333003 30:0.333003 31:0.333003 32:0.333003 33:0.333003 34:0.333003 35:0.333003 36:0.333003 37:0.00119009 38:0.00119009 39:0.00119009 40:0.00119009 41:0.00119009 42:0.00119009 43:0.00119009 44:0.00119009 45:0.00119009 46:0.330512 47:0.330512 48:0.330512 49:0.330512 50:0.330512 51:0.330512 52:0.330512 53:0.330512 54:0.330512 55:0.0255953 56:0.0255953 57:0.0255953 58:0.0255953 59:0.0255953 60:0.0255953 61:0.0255953 62:0.0255953 63:0.0255953 64:0.0348736 65:0.0348736 66:0.0348736 67:0.0348736 68:0.0348736 69:0.0348736 70:0.0348736 71:0.0348736 72:0.0348736 73:0.187943 74:0.187943 75:0.187943 76:0.187943 77:0.187943 78:0.187943 79:0.187943 80:0.187943 81:0.187943 82:0.256072 83:0.256072 84:0.256072 85:0.256072 86:0.256072 87:0.256072 88:0.256072 89:0.256072 90:0.256072 91:0.0896001 92:0.0896001 93:0.0896001 94:0.0896001 95:0.0896001 96:0.0896001 97:0.0896001 98:0.0896001 99:0.0896001 100:0.0467713 101:0.0467713 102:0.0467713 103:0.0467713 104:0.0467713 105:0.0467713 106:0.0467713 107:0.0467713 108:0.0467713 109:0.272805 110:0.272805 111:0.272805 112:0.272805 113:0.272805 114:0.272805 115:0.272805 116:0.272805 117:0.272805 118:0.186775 119:0.186775 120:0.186775 121:0.186775 122:0.186775 123:0.186775 124:0.186775 125:0.186775 126:0.186775 127:0.0419279 128:0.0419279 129:0.0419279 130:0.0419279 131:0.0419279 132:0.0419279 133:0.0419279 134:0.0419279 135:0.0419279 136:0.00675356 137:0.00675356 138:0.00675356 139:0.00675356 140:0.00675356 141:0.00675356 142:0.00675356 143:0.00675356 144:0.00675356 145:0.00241923 146:0.00241923 147:0.00241923 148:0.00241923 149:0.00241923 150:0.00241923 151:0.00241923 152:0.00241923 153:0.00241923 154:0.000389679 155:0.000389679 156:0.000389679 157:0.000389679 158:0.000389679 159:0.000389679 160:0.000389679 161:0.000389679 162:0.000389679 163:0.00119045 164:0.00119045 165:0.00119045 166:0.00119045 167:0.00119045 168:0.00119045 169:0.00119045 170:0.00119045 171:0.00119045 172:0.333322 173:0.333322 174:0.333322 175:0.333322 176:0.333322 177:0.333322 178:0.333322 179:0.333322 180:0.333322 181:0.00118969 182:0.00118969 183:0.00118969 184:0.00118969 185:0.00118969 186:0.00118969 187:0.00118969 188:0.00118969 189:0.00118969 190:0.333111 191:0.333111 192:0.333111 193:0.333111 194:0.333111 195:0.333111 196:0.333111 197:0.333111 198:0.333111 199:0.00121096 200:0.00121096 201:0.00121096 202:0.00121096 203:0.00121096 204:0.00121096 205:0.00121096 206:0.00121096 207:0.00121096 208:0.0120441 209:0.0120441 210:0.0120441 211:0.0120441 212:0.0120441 213:0.0120441 214:0.0120441 215:0.0120441 216:0.0120441 217:0.0446858 218:0.0446858 219:0.0446858 220:0.0446858 221:0.0446858 222:0.0446858 223:0.0446858 224:0.0446858 225:0.0446858 226:0.00201387 227:0.00201387 228:0.00201387 229:0.00201387 230:0.00201387 231:0.00201387 232:0.00201387 233:0.00201387 234:0.00201387 235:0.327554 236:0.327554 237:0.327554 238:0.327554 239:0.327554 240:0.327554 241:0.327554 242:0.327554 243:0.327554 244:0.0426441 245:0.0426441 246:0.0426441 247:0.0426441 248:0.0426441 249:0.0426441 250:0.0426441 251:0.0426441 252:0.0426441 253:0.210376 254:0.210376 255:0.210376 256:0.210376 257:0.210376 258:0.210376 259:0.210376 260:0.210376 261:0.210376 262:0.0273887 263:0.0273887 264:0.0273887 265:0.0273887 266:0.0273887 267:0.0273887 268:0.0273887 269:0.0273887 270:0.0273887 271:0.257093 272:0.257093 273:0.257093 274:0.257093 275:0.257093 276:0.257093 277:0.257093 278:0.257093 279:0.257093 280:0.00250788 281:0.00250788 282:0.00250788 283:0.00250788 284:0.00250788 285:0.00250788 286:0.00250788 287:0.00250788 288:0.00250788 289:0.0095086 290:0.0095086 291:0.0095086 292:0.0095086 293:0.0095086 294:0.0095086 295:0.0095086 296:0.0095086 297:0.0095086 298:9.27541e-05 299:9.27541e-05 300:9.27541e-05 301:9.27541e-05 302:9.27541e-05 303:9.27541e-05 304:9.27541e-05 305:9.27541e-05 306:9.27541e-05 307:0.00111765 308:0.00111765 309:0.00111765 310:0.00111765 311:0.00111765 312:0.00111765 313:0.00111765 314:0.00111765 315:0.00111765 316:0.333196 317:0.333196 318:0.333196 319:0.333196 320:0.333196 321:0.333196 322:0.333196 323:0.333196 324:0.333196 325:0.0980539 326:0.0980539 327:0.0980539 328:0.0980539 329:0.0980539 330:0.0980539 331:0.0980539 332:0.0980539 333:0.0980539 334:0.0700294 335:0.0700294 336:0.0700294 337:0.0700294 338:0.0700294 339:0.0700294 340:0.0700294 341:0.0700294 342:0.0700294 343:0.277752 344:0.277752 345:0.277752 346:0.277752 347:0.277752 348:0.277752 349:0.277752 350:0.277752 351:0.277752 352:0.13945 353:0.13945 354:0.13945 355:0.13945 356:0.13945 357:0.13945 358:0.13945 359:0.13945 360:0.13945 361:0.0688547 362:0.0688547 363:0.0688547 364:0.0688547 365:0.0688547 366:0.0688547 367:0.0688547 368:0.0688547 369:0.0688547 370:0.0345697 371:0.0345697 372:0.0345697 373:0.0345697 374:0.0345697 375:0.0345697 376:0.0345697 377:0.0345697 378:0.0345697 379:0.245172 380:0.245172 381:0.245172 382:0.245172 383:0.245172 384:0.245172 385:0.245172 386:0.245172 387:0.245172 388:0.212287 389:0.212287 390:0.212287 391:0.212287 392:0.212287 393:0.212287 394:0.212287 395:0.212287 396:0.212287 397:0.250906 398:0.250906 399:0.250906 400:0.250906 401:0.250906 402:0.250906 403:0.250906 404:0.250906 405:0.250906 406:0.217252 407:0.217252 408:0.217252 409:0.217252 410:0.217252 411:0.217252 412:0.217252 413:0.217252 414:0.217252 415:0.0308666 416:0.0308666 417:0.0308666 418:0.0308666 419:0.0308666 420:0.0308666 421:0.0308666 422:0.0308666 423:0.0308666 424:0.00250532 425:0.00250532 426:0.00250532 427:0.00250532 428:0.00250532 429:0.00250532 430:0.00250532 431:0.00250532 432:0.00250532 433:0.0168198 434:0.0168198 435:0.0168198 436:0.0168198 437:0.0168198 438:0.0168198 439:0.0168198 440:0.0168198 441:0.0168198 442:0.00764521 443:0.00764521 444:0.00764521 445:0.00764521 446:0.00764521 447:0.00764521 448:0.00764521 449:0.00764521 450:0.00764521 451:0.0774059 452:0.0774059 453:0.0774059 454:0.0774059 455:0.0774059 456:0.0774059 457:0.0774059 458:0.0774059 459:0.0774059 460:0.323694 461:0.323694 462:0.323694 463:0.323694 464:0.323694 465:0.323694 466:0.323694 467:0.323694 468:0.323694 469:0.0565001 470:0.0565001 471:0.0565001 472:0.0565001 473:0.0565001 474:0.0565001 475:0.0565001 476:0.0565001 477:0.0565001 478:0.236271 479:0.236271 480:0.236271 481:0.236271 482:0.236271 483:0.236271 484:0.236271 485:0.236271 486:0.236271 487:0.0549486 488:0.0549486 489:0.0549486 490:0.0549486 491:0.0549486 492:0.0549486 493:0.0549486 494:0.0549486 495:0.0549486 496:0.22153 497:0.22153 498:0.22153 499:0.22153 500:0.22153 501:0.22153 502:0.22153 503:0.22153 504:0.22153 505:0.0796918 506:0.0796918 507:0.0796918 508:0.0796918 509:0.0796918 510:0.0796918 511:0.0796918 512:0.0796918 513:0.0796918 514:0.321284 515:0.321284 516:0.321284 517:0.321284 518:0.321284 519:0.321284 520:0.321284 521:0.321284 522:0.321284 523:0.0253573 524:0.0253573 525:0.0253573 526:0.0253573 527:0.0253573 528:0.0253573 529:0.0253573 530:0.0253573 531:0.0253573 532:0.0298943 533:0.0298943 534:0.0298943 535:0.0298943 536:0.0298943 537:0.0298943 538:0.0298943 539:0.0298943 540:0.0298943 541:0.0008487 542:0.0008487 543:0.0008487 544:0.0008487 545:0.0008487 546:0.0008487 547:0.0008487 548:0.0008487 549:0.0008487 550:0.0008487 551:0.0008487 552:0.0008487 553:0.0008487 554:0.0008487 555:0.0008487 556:0.0008487 557:0.0008487 558:0.0008487 559:0.235701 560:0.235701 561:0.235701 562:0.235701 563:0.235701 564:0.235701 565:0.235701 566:0.235701 567:0.235701 568:0.235701 569:0.235701 570:0.235701 571:0.235701 572:0.235701 573:0.235701 574:0.235701 575:0.235701 576:0.235701 577:0.235701 578:0.235701 579:0.235701 580:0.235701 581:0.235701 582:0.235701 583:0.235701 584:0.235701 585:0.235701 586:0.235701 587:0.235701 588:0.235701 589:0.235701 590:0.235701 591:0.235701 592:0.235701 593:0.235701 594:0.235701 595:0.000842352 596:0.000842352 597:0.000842352 598:0.000842352 599:0.000842352 600:0.000842352 601:0.000842352 602:0.000842352 603:0.000842352 604:0.000842352 605:0.000842352 606:0.000842352 607:0.000842352 608:0.000842352 609:0.000842352 610:0.000842352 611:0.000842352 612:0.000842352 613:0.00120023 614:0.00120023 615:0.00120023 616:0.00120023 617:0.00120023 618:0.00120023 619:0.00120023 620:0.00120023 621:0.00120023 622:0.00120023 623:0.00120023 624:0.00120023 625:0.00120023 626:0.00120023 627:0.00120023 628:0.00120023 629:0.00120023 630:0.00120023 631:0.00120023 632:0.00120023 633:0.00120023 634:0.00120023 635:0.00120023 636:0.00120023 637:0.00120023 638:0.00120023 639:0.00120023 640:0.333327 641:0.333327 642:0.333327 643:0.333327 644:0.333327 645:0.333327 646:0.333327 647:0.333327 648:0.333327 649:0.222476 650:0.222476 651:0.222476 652:0.222476 653:0.222476 654:0.222476 655:0.222476 656:0.222476 657:0.222476 658:0.222476 659:0.222476 660:0.222476 661:0.222476 662:0.222476 663:0.222476 664:0.222476 665:0.222476 666:0.222476 667:0.0778449 668:0.0778449 669:0.0778449 670:0.0778449 671:0.0778449 672:0.0778449 673:0.0778449 674:0.0778449 675:0.0778449 676:0.0778449 677:0.0778449 678:0.0778449 679:0.0778449 680:0.0778449 681:0.0778449 682:0.0778449 683:0.0778449 684:0.0778449 685:0.208948 686:0.208948 687:0.208948 688:0.208948 689:0.208948 690:0.208948 691:0.208948 692:0.208948 693:0.208948 694:0.208948 695:0.208948 696:0.208948 697:0.208948 698:0.208948 699:0.208948 700:0.208948 701:0.208948 702:0.208948 703:0.109071 704:0.109071 705:0.109071 706:0.109071 707:0.109071 708:0.109071 709:0.109071 710:0.109071 711:0.109071 712:0.109071 713:0.109071 714:0.109071 715:0.109071 716:0.109071 717:0.109071 718:0.109071 719:0.109071 720:0.109071 721:0.0398291 722:0.0398291 723:0.0398291 724:0.0398291 725:0.0398291 726:0.0398291 727:0.0398291 728:0.0398291 729:0.0398291 730:0.0398291 731:0.0398291 732:0.0398291 733:0.0398291 734:0.0398291 735:0.0398291 736:0.0398291 737:0.0398291 738:0.0398291 739:0.232313 740:0.232313 741:0.232313 742:0.232313 743:0.232313 744:0.232313 745:0.232313 746:0.232313 747:0.232313 748:0.232313 749:0.232313 750:0.232313 751:0.232313 752:0.232313 753:0.232313 754:0.232313 755:0.232313 756:0.232313 
3111.10990589856 1:0.0163237 2:0.0163237 3:0.0163237 4:0.0163237 5:0.0163237 6:0.0163237 7:0.0163237 8:0.0163237 9:0.0163237 10:0.00151594 11:0.00151594 12:0.00151594 13:0.00151594 14:0.00151594 15:0.00151594 16:0.00151594 17:0.00151594 18:0.00151594 19:0.00142927 20:0.00142927 21:0.00142927 22:0.00142927 23:0.00142927 24:0.00142927 25:0.00142927 26:0.00142927 27:0.00142927 28:0.332927 29:0.332927 30:0.332927 31:0.332927 32:0.332927 33:0.332927 34:0.332927 35:0.332927 36:0.332927 37:0.00141976 38:0.00141976 39:0.00141976 40:0.00141976 41:0.00141976 42:0.00141976 43:0.00141976 44:0.00141976 45:0.00141976 46:0.330714 47:0.330714 48:0.330714 49:0.330714 50:0.330714 51:0.330714 52:0.330714 53:0.330714 54:0.330714 55:0.0243176 56:0.0243176 57:0.0243176 58:0.0243176 59:0.0243176 60:0.0243176 61:0.0243176 62:0.0243176 63:0.0243176 64:0.0338569 65:0.0338569 66:0.0338569 67:0.0338569 68:0.0338569 69:0.0338569 70:0.0338569 71:0.0338569 72:0.0338569 73:0.186622 74:0.186622 75:0.186622 76:0.186622 77:0.186622 78:0.186622 79:0.186622 80:0.186622 81:0.186622 82:0.259831 83:0.259831 84:0.259831 85:0.259831 86:0.259831 87:0.259831 88:0.259831 89:0.259831 90:0.259831 91:0.0470958 92:0.0470958 93:0.0470958 94:0.0470958 95:0.0470958 96:0.0470958 97:0.0470958 98:0.0470958 99:0.0470958 100:0.0809519 101:0.0809519 102:0.0809519 103:0.0809519 104:0.0809519 105:0.0809519 106:0.0809519 107:0.0809519 108:0.0809519 109:0.184204 110:0.184204 111:0.184204 112:0.184204 113:0.184204 114:0.184204 115:0.184204 116:0.184204 117:0.184204 118:0.210628 119:0.210628 120:0.210628 121:0.210628 122:0.210628 123:0.210628 124:0.210628 125:0.210628 126:0.210628 127:0.180507 128:0.180507 129:0.180507 130:0.180507 131:0.180507 132:0.180507 133:0.180507 134:0.180507 135:0.180507 136:0.0152666 137:0.0152666 138:0.0152666 139:0.0152666 140:0.0152666 141:0.0152666 142:0.0152666 143:0.0152666 144:0.0152666 145:0.00977845 146:0.00977845 147:0.00977845 148:0.00977845 149:0.00977845 150:0.00977845 151:0.00977845 152:0.00977845 153:0.00977845 154:0.000827025 155:0.000827025 156:0.000827025 157:0.000827025 158:0.000827025 159:0.000827025 160:0.000827025 161:0.000827025 162:0.000827025 163:0.00194793 164:0.00194793 165:0.00194793 166:0.00194793 167:0.00194793 168:0.00194793 169:0.00194793 170:0.00194793 171:0.00194793 172:0.333183 173:0.333183 174:0.333183 175:0.333183 176:0.333183 177:0.333183 178:0.333183 179:0.333183 180:0.333183 181:0.00194799 182:0.00194799 183:0.00194799 184:0.00194799 185:0.00194799 186:0.00194799 187:0.00194799 188:0.00194799 189:0.00194799 190:0.333194 191:0.333194 192:0.333194 193:0.333194 194:0.333194 195:0.333194 196:0.333194 197:0.333194 198:0.333194 199:0.00171653 200:0.00171653 201:0.00171653 202:0.00171653 203:0.00171653 204:0.00171653 205:0.00171653 206:0.00171653 207:0.00171653 208:0.00929171 209:0.00929171 210:0.00929171 211:0.00929171 212:0.00929171 213:0.00929171 214:0.00929171 215:0.00929171 216:0.00929171 217:0.0856138 218:0.0856138 219:0.0856138 220:0.0856138 221:0.0856138 222:0.0856138 223:0.0856138 224:0.0856138 225:0.0856138 226:0 227:0 228:0 229:0 230:0 231:0 232:0 233:0 234:0 235:0.309075 236:0.309075 237:0.309075 238:0.309075 239:0.309075 240:0.309075 241:0.309075 242:0.309075 243:0.309075 244:0.0908501 245:0.0908501 246:0.0908501 247:0.0908501 248:0.0908501 249:0.0908501 250:0.0908501 251:0.0908501 252:0.0908501 253:0.288531 254:0.288531 255:0.288531 256:0.288531 257:0.288531 258:0.288531 259:0.288531 260:0.288531 261:0.288531 262:0.0848112 263:0.0848112 264:0.0848112 265:0.0848112 266:0.0848112 267:0.0848112 268:0.0848112 269:0.0848112 270:0.0848112 271:0.143698 272:0.143698 273:0.143698 274:0.143698 275:0.143698 276:0.143698 277:0.143698 278:0.143698 279:0.143698 280:0.0043599 281:0.0043599 282:0.0043599 283:0.0043599 284:0.0043599 285:0.0043599 286:0.0043599 287:0.0043599 288:0.0043599 289:0.00207222 290:0.00207222 291:0.00207222 292:0.00207222 293:0.00207222 294:0.00207222 295:0.00207222 296:0.00207222 297:0.00207222 298:6.28726e-05 299:6.28726e-05 300:6.28726e-05 301:6.28726e-05 302:6.28726e-05 303:6.28726e-05 304:6.28726e-05 305:6.28726e-05 306:6.28726e-05 307:0.000353436 308:0.000353436 309:0.000353436 310:0.000353436 311:0.000353436 312:0.000353436 313:0.000353436 314:0.000353436 315:0.000353436 316:0.333327 317:0.333327 318:0.333327 319:0.333327 320:0.333327 321:0.333327 322:0.333327 323:0.333327 324:0.333327 325:0.124158 326:0.124158 327:0.124158 328:0.124158 329:0.124158 330:0.124158 331:0.124158 332:0.124158 333:0.124158 334:0.0136011 335:0.0136011 336:0.0136011 337:0.0136011 338:0.0136011 339:0.0136011 340:0.0136011 341:0.0136011 342:0.0136011 343:0.241617 344:0.241617 345:0.241617 346:0.241617 347:0.241617 348:0.241617 349:0.241617 350:0.241617 351:0.241617 352:0.192697 353:0.192697 354:0.192697 355:0.192697 356:0.192697 357:0.192697 358:0.192697 359:0.192697 360:0.192697 361:0.0602202 362:0.0602202 363:0.0602202 364:0.0602202 365:0.0602202 366:0.0602202 367:0.0602202 368:0.0602202 369:0.0602202 370:0.0480276 371:0.0480276 372:0.0480276 373:0.0480276 374:0.0480276 375:0.0480276 376:0.0480276 377:0.0480276 378:0.0480276 379:0.265585 380:0.265585 381:0.265585 382:0.265585 383:0.265585 384:0.265585 385:0.265585 386:0.265585 387:0.265585 388:0.186126 389:0.186126 390:0.186126 391:0.186126 392:0.186126 393:0.186126 394:0.186126 395:0.186126 396:0.186126 397:0.252241 398:0.252241 399:0.252241 400:0.252241 401:0.252241 402:0.252241 403:0.252241 404:0.252241 405:0.252241 406:0.176774 407:0.176774 408:0.176774 409:0.176774 410:0.176774 411:0.176774 412:0.176774 413:0.176774 414:0.176774 415:0.127298 416:0.127298 417:0.127298 418:0.127298 419:0.127298 420:0.127298 421:0.127298 422:0.127298 423:0.127298 424:0.005638 425:0.005638 426:0.005638 427:0.005638 428:0.005638 429:0.005638 430:0.005638 431:0.005638 432:0.005638 433:0.0459354 434:0.0459354 435:0.0459354 436:0.0459354 437:0.0459354 438:0.0459354 439:0.0459354 440:0.0459354 441:0.0459354 442:0.0157357 443:0.0157357 444:0.0157357 445:0.0157357 446:0.0157357 447:0.0157357 448:0.0157357 449:0.0157357 450:0.0157357 451:0.175066 452:0.175066 453:0.175066 454:0.175066 455:0.175066 456:0.175066 457:0.175066 458:0.175066 459:0.175066 460:0.279473 461:0.279473 462:0.279473 463:0.279473 464:0.279473 465:0.279473 466:0.279473 467:0.279473 468:0.279473 469:0.0817279 470:0.0817279 471:0.0817279 472:0.0817279 473:0.0817279 474:0.0817279 475:0.0817279 476:0.0817279 477:0.0817279 478:0.13047 479:0.13047 480:0.13047 481:0.13047 482:0.13047 483:0.13047 484:0.13047 485:0.13047 486:0.13047 487:0.0777015 488:0.0777015 489:0.0777015 490:0.0777015 491:0.0777015 492:0.0777015 493:0.0777015 494:0.0777015 495:0.0777015 496:0.285257 497:0.285257 498:0.285257 499:0.285257 500:0.285257 501:0.285257 502:0.285257 503:0.285257 504:0.285257 505:0.0869562 506:0.0869562 507:0.0869562 508:0.0869562 509:0.0869562 510:0.0869562 511:0.0869562 512:0.0869562 513:0.0869562 514:0.319233 515:0.319233 516:0.319233 517:0.319233 518:0.319233 519:0.319233 520:0.319233 521:0.319233 522:0.319233 523:0.018625 524:0.018625 525:0.018625 526:0.018625 527:0.018625 528:0.018625 529:0.018625 530:0.018625 531:0.018625 532:0.0359573 533:0.0359573 534:0.0359573 535:0.0359573 536:0.0359573 537:0.0359573 538:0.0359573 539:0.0359573 540:0.0359573 541:0.00101187 542:0.00101187 543:0.00101187 544:0.00101187 545:0.00101187 546:0.00101187 547:0.00101187 548:0.00101187 549:0.00101187 550:0.00101187 551:0.00101187 552:0.00101187 553:0.00101187 554:0.00101187 555:0.00101187 556:0.00101187 557:0.00101187 558:0.00101187 559:0.2357 560:0.2357 561:0.2357 562:0.2357 563:0.2357 564:0.2357 565:0.2357 566:0.2357 567:0.2357 568:0.2357 569:0.2357 570:0.2357 571:0.2357 572:0.2357 573:0.2357 574:0.2357 575:0.2357 576:0.2357 577:0.2357 578:0.2357 579:0.2357 580:0.2357 581:0.2357 582:0.2357 583:0.2357 584:0.2357 585:0.2357 586:0.2357 587:0.2357 588:0.2357 589:0.2357 590:0.2357 591:0.2357 592:0.2357 593:0.2357 594:0.2357 595:0.00100514 596:0.00100514 597:0.00100514 598:0.00100514 599:0.00100514 600:0.00100514 601:0.00100514 602:0.00100514 603:0.00100514 604:0.00100514 605:0.00100514 606:0.00100514 607:0.00100514 608:0.00100514 609:0.00100514 610:0.00100514 611:0.00100514 612:0.00100514 613:0.00143097 614:0.00143097 615:0.00143097 616:0.00143097 617:0.00143097 618:0.00143097 619:0.00143097 620:0.00143097 621:0.00143097 622:0.00143097 623:0.00143097 624:0.00143097 625:0.00143097 626:0.00143097 627:0.00143097 628:0.00143097 629:0.00143097 630:0.00143097 631:0.00143097 632:0.00143097 633:0.00143097 634:0.00143097 635:0.00143097 636:0.00143097 637:0.00143097 638:0.00143097 639:0.00143097 640:0.333324 641:0.333324 642:0.333324 643:0.333324 644:0.333324 645:0.333324 646:0.333324 647:0.333324 648:0.333324 649:0.231923 650:0.231923 651:0.231923 652:0.231923 653:0.231923 654:0.231923 655:0.231923 656:0.231923 657:0.231923 658:0.231923 659:0.231923 660:0.231923 661:0.231923 662:0.231923 663:0.231923 664:0.231923 665:0.231923 666:0.231923 667:0.0420374 668:0.0420374 669:0.0420374 670:0.0420374 671:0.0420374 672:0.0420374 673:0.0420374 674:0.0420374 675:0.0420374 676:0.0420374 677:0.0420374 678:0.0420374 679:0.0420374 680:0.0420374 681:0.0420374 682:0.0420374 683:0.0420374 684:0.0420374 685:0.118527 686:0.118527 687:0.118527 688:0.118527 689:0.118527 690:0.118527 691:0.118527 692:0.118527 693:0.118527 694:0.118527 695:0.118527 696:0.118527 697:0.118527 698:0.118527 699:0.118527 700:0.118527 701:0.118527 702:0.118527 703:0.203733 704:0.203733 705:0.203733 706:0.203733 707:0.203733 708:0.203733 709:0.203733 710:0.203733 711:0.203733 712:0.203733 713:0.203733 714:0.203733 715:0.203733 716:0.203733 717:0.203733 718:0.203733 719:0.203733 720:0.203733 721:0.0948302 722:0.0948302 723:0.0948302 724:0.0948302 725:0.0948302 726:0.0948302 727:0.0948302 728:0.0948302 729:0.0948302 730:0.0948302 731:0.0948302 732:0.0948302 733:0.0948302 734:0.0948302 735:0.0948302 736:0.0948302 737:0.0948302 738:0.0948302 739:0.215784 740:0.215784 741:0.215784 742:0.215784 743:0.215784 744:0.215784 745:0.215784 746:0.215784 747:0.215784 748:0.215784 749:0.215784 750:0.215784 751:0.215784 752:0.215784 753:0.215784 754:0.215784 755:0.215784 756:0.215784 
2244.883690875651 1:0.00994864 2:0.00994864 3:0.00994864 4:0.00994864 5:0.00994864 6:0.00994864 7:0.00994864 8:0.00994864 9:0.00994864 10:0.00203392 11:0.00203392 12:0.00203392 13:0.00203392 14:0.00203392 15:0.00203392 16:0.00203392 17:0.00203392 18:0.00203392 19:0.00288806 20:0.00288806 21:0.00288806 22:0.00288806 23:0.00288806 24:0.00288806 25:0.00288806 26:0.00288806 27:0.00288806 28:0.333166 29:0.333166 30:0.333166 31:0.333166 32:0.333166 33:0.333166 34:0.333166 35:0.333166 36:0.333166 37:0.00284561 38:0.00284561 39:0.00284561 40:0.00284561 41:0.00284561 42:0.00284561 43:0.00284561 44:0.00284561 45:0.00284561 46:0.328269 47:0.328269 48:0.328269 49:0.328269 50:0.328269 51:0.328269 52:0.328269 53:0.328269 54:0.328269 55:0.0321821 56:0.0321821 57:0.0321821 58:0.0321821 59:0.0321821 60:0.0321821 61:0.0321821 62:0.0321821 63:0.0321821 64:0.0480306 65:0.0480306 66:0.0480306 67:0.0480306 68:0.0480306 69:0.0480306 70:0.0480306 71:0.0480306 72:0.0480306 73:0.129589 74:0.129589 75:0.129589 76:0.129589 77:0.129589 78:0.129589 79:0.129589 80:0.129589 81:0.129589 82:0.193407 83:0.193407 84:0.193407 85:0.193407 86:0.193407 87:0.193407 88:0.193407 89:0.193407 90:0.193407 91:0.0282466 92:0.0282466 93:0.0282466 94:0.0282466 95:0.0282466 96:0.0282466 97:0.0282466 98:0.0282466 99:0.0282466 100:0.236883 101:0.236883 102:0.236883 103:0.236883 104:0.236883 105:0.236883 106:0.236883 107:0.236883 108:0.236883 109:0.217045 110:0.217045 111:0.217045 112:0.217045 113:0.217045 114:0.217045 115:0.217045 116:0.217045 117:0.217045 118:0.221629 119:0.221629 120:0.221629 121:0.221629 122:0.221629 123:0.221629 124:0.221629 125:0.221629 126:0.221629 127:0.121409 128:0.121409 129:0.121409 130:0.121409 131:0.121409 132:0.121409 133:0.121409 134:0.121409 135:0.121409 136:0.011955 137:0.011955 138:0.011955 139:0.011955 140:0.011955 141:0.011955 142:0.011955 143:0.011955 144:0.011955 145:0.0100919 146:0.0100919 147:0.0100919 148:0.0100919 149:0.0100919 150:0.0100919 151:0.0100919 152:0.0100919 153:0.0100919 154:0.00099374 155:0.00099374 156:0.00099374 157:0.00099374 158:0.00099374 159:0.00099374 160:0.00099374 161:0.00099374 162:0.00099374 163:0.00321611 164:0.00321611 165:0.00321611 166:0.00321611 167:0.00321611 168:0.00321611 169:0.00321611 170:0.00321611 171:0.00321611 172:0.333164 173:0.333164 174:0.333164 175:0.333164 176:0.333164 177:0.333164 178:0.333164 179:0.333164 180:0.333164 181:0.0032176 182:0.0032176 183:0.0032176 184:0.0032176 185:0.0032176 186:0.0032176 187:0.0032176 188:0.0032176 189:0.0032176 190:0.333318 191:0.333318 192:0.333318 193:0.333318 194:0.333318 195:0.333318 196:0.333318 197:0.333318 198:0.333318 199:0 200:0 201:0 202:0 203:0 204:0 205:0 206:0 207:0 208:0 209:0 210:0 211:0 212:0 213:0 214:0 215:0 216:0 217:0.189518 218:0.189518 219:0.189518 220:0.189518 221:0.189518 222:0.189518 223:0.189518 224:0.189518 225:0.189518 226:0.077107 227:0.077107 228:0.077107 229:0.077107 230:0.077107 231:0.077107 232:0.077107 233:0.077107 234:0.077107 235:0.247659 236:0.247659 237:0.247659 238:0.247659 239:0.247659 240:0.247659 241:0.247659 242:0.247659 243:0.247659 244:0.088957 245:0.088957 246:0.088957 247:0.088957 248:0.088957 249:0.088957 250:0.088957 251:0.088957 252:0.088957 253:0.214419 254:0.214419 255:0.214419 256:0.214419 257:0.214419 258:0.214419 259:0.214419 260:0.214419 261:0.214419 262:0.0770174 263:0.0770174 264:0.0770174 265:0.0770174 266:0.0770174 267:0.0770174 268:0.0770174 269:0.0770174 270:0.0770174 271:0.24329 272:0.24329 273:0.24329 274:0.24329 275:0.24329 276:0.24329 277:0.24329 278:0.24329 279:0.24329 280:0.00372916 281:0.00372916 282:0.00372916 283:0.00372916 284:0.00372916 285:0.00372916 286:0.00372916 287:0.00372916 288:0.00372916 289:0.00684411 290:0.00684411 291:0.00684411 292:0.00684411 293:0.00684411 294:0.00684411 295:0.00684411 296:0.00684411 297:0.00684411 298:0.000104907 299:0.000104907 300:0.000104907 301:0.000104907 302:0.000104907 303:0.000104907 304:0.000104907 305:0.000104907 306:0.000104907 307:0.00142663 308:0.00142663 309:0.00142663 310:0.00142663 311:0.00142663 312:0.00142663 313:0.00142663 314:0.00142663 315:0.00142663 316:0.33326 317:0.33326 318:0.33326 319:0.33326 320:0.33326 321:0.33326 322:0.33326 323:0.33326 324:0.33326 325:0.323297 326:0.323297 327:0.323297 328:0.323297 329:0.323297 330:0.323297 331:0.323297 332:0.323297 333:0.323297 334:0.0445747 335:0.0445747 336:0.0445747 337:0.0445747 338:0.0445747 339:0.0445747 340:0.0445747 341:0.0445747 342:0.0445747 343:0.0164022 344:0.0164022 345:0.0164022 346:0.0164022 347:0.0164022 348:0.0164022 349:0.0164022 350:0.0164022 351:0.0164022 352:0.0658351 353:0.0658351 354:0.0658351 355:0.0658351 356:0.0658351 357:0.0658351 358:0.0658351 359:0.0658351 360:0.0658351 361:0.00160661 362:0.00160661 363:0.00160661 364:0.00160661 365:0.00160661 366:0.00160661 367:0.00160661 368:0.00160661 369:0.00160661 370:0.0064486 371:0.0064486 372:0.0064486 373:0.0064486 374:0.0064486 375:0.0064486 376:0.0064486 377:0.0064486 378:0.0064486 379:0.227777 380:0.227777 381:0.227777 382:0.227777 383:0.227777 384:0.227777 385:0.227777 386:0.227777 387:0.227777 388:0.243279 389:0.243279 390:0.243279 391:0.243279 392:0.243279 393:0.243279 394:0.243279 395:0.243279 396:0.243279 397:0.227129 398:0.227129 399:0.227129 400:0.227129 401:0.227129 402:0.227129 403:0.227129 404:0.227129 405:0.227129 406:0.242586 407:0.242586 408:0.242586 409:0.242586 410:0.242586 411:0.242586 412:0.242586 413:0.242586 414:0.242586 415:0.0259776 416:0.0259776 417:0.0259776 418:0.0259776 419:0.0259776 420:0.0259776 421:0.0259776 422:0.0259776 423:0.0259776 424:0.000752508 425:0.000752508 426:0.000752508 427:0.000752508 428:0.000752508 429:0.000752508 430:0.000752508 431:0.000752508 432:0.000752508 433:0.0832419 434:0.0832419 435:0.0832419 436:0.0832419 437:0.0832419 438:0.0832419 439:0.0832419 440:0.0832419 441:0.0832419 442:0.0568229 443:0.0568229 444:0.0568229 445:0.0568229 446:0.0568229 447:0.0568229 448:0.0568229 449:0.0568229 450:0.0568229 451:0.20178 452:0.20178 453:0.20178 454:0.20178 455:0.20178 456:0.20178 457:0.20178 458:0.20178 459:0.20178 460:0.245434 461:0.245434 462:0.245434 463:0.245434 464:0.245434 465:0.245434 466:0.245434 467:0.245434 468:0.245434 469:0.0978106 470:0.0978106 471:0.0978106 472:0.0978106 473:0.0978106 474:0.0978106 475:0.0978106 476:0.0978106 477:0.0978106 478:0.118971 479:0.118971 480:0.118971 481:0.118971 482:0.118971 483:0.118971 484:0.118971 485:0.118971 486:0.118971 487:0.0779139 488:0.0779139 489:0.0779139 490:0.0779139 491:0.0779139 492:0.0779139 493:0.0779139 494:0.0779139 495:0.0779139 496:0.285166 497:0.285166 498:0.285166 499:0.285166 500:0.285166 501:0.285166 502:0.285166 503:0.285166 504:0.285166 505:0.0877189 506:0.0877189 507:0.0877189 508:0.0877189 509:0.0877189 510:0.0877189 511:0.0877189 512:0.0877189 513:0.0877189 514:0.321052 515:0.321052 516:0.321052 517:0.321052 518:0.321052 519:0.321052 520:0.321052 521:0.321052 522:0.321052 523:0.00314487 524:0.00314487 525:0.00314487 526:0.00314487 527:0.00314487 528:0.00314487 529:0.00314487 530:0.00314487 531:0.00314487 532:0.0182308 533:0.0182308 534:0.0182308 535:0.0182308 536:0.0182308 537:0.0182308 538:0.0182308 539:0.0182308 540:0.0182308 541:0.00204312 542:0.00204312 543:0.00204312 544:0.00204312 545:0.00204312 546:0.00204312 547:0.00204312 548:0.00204312 549:0.00204312 550:0.00204312 551:0.00204312 552:0.00204312 553:0.00204312 554:0.00204312 555:0.00204312 556:0.00204312 557:0.00204312 558:0.00204312 559:0.235693 560:0.235693 561:0.235693 562:0.235693 563:0.235693 564:0.235693 565:0.235693 566:0.235693 567:0.235693 568:0.235693 569:0.235693 570:0.235693 571:0.235693 572:0.235693 573:0.235693 574:0.235693 575:0.235693 576:0.235693 577:0.235702 578:0.235702 579:0.235702 580:0.235702 581:0.235702 582:0.235702 583:0.235702 584:0.235702 585:0.235702 586:0.235702 587:0.235702 588:0.235702 589:0.235702 590:0.235702 591:0.235702 592:0.235702 593:0.235702 594:0.235702 595:0 596:0 597:0 598:0 599:0 600:0 601:0 602:0 603:0 604:0 605:0 606:0 607:0 608:0 609:0 610:0 611:0 612:0 613:0 614:0 615:0 616:0 617:0 618:0 619:0 620:0 621:0 622:0 623:0 624:0 625:0 626:0 627:0 628:0 629:0 630:0 631:0.333333 632:0.333333 633:0.333333 634:0.333333 635:0.333333 636:0.333333 637:0.333333 638:0.333333 639:0.333333 640:0 641:0 642:0 643:0 644:0 645:0 646:0 647:0 648:0 649:0 650:0 651:0 652:0 653:0 654:0 655:0 656:0 657:0 658:0 659:0 660:0 661:0 662:0 663:0 664:0 665:0 666:0 667:0 668:0 669:0 670:0 671:0 672:0 673:0 674:0 675:0 676:0 677:0 678:0 679:0 680:0 681:0 682:0 683:0 684:0 685:0 686:0 687:0 688:0 689:0 690:0 691:0 692:0 693:0 694:0 695:0 696:0 697:0 698:0 699:0 700:0 701:0 702:0 703:0 704:0 705:0 706:0 707:0 708:0 709:0 710:0 711:0 712:0 713:0 714:0 715:0 716:0 717:0 718:0 719:0 720:0 721:0 722:0 723:0 724:0 725:0 726:0 727:0 728:0 729:0 730:0 731:0 732:0 733:0 734:0 735:0 736:0 737:0 738:0 739:0 740:0 741:0 742:0 743:0 744:0 745:0 746:0 747:0 748:0 749:0 750:0 751:0 752:0 753:0 754:0 755:0 756:0 
3976.099114022617 1:0.0221773 2:0.0221773 3:0.0221773 4:0.0221773 5:0.0221773 6:0.0221773 7:0.0221773 8:0.0221773 9:0.0221773 10:0.00128364 11:0.00128364 12:0.00128364 13:0.00128364 14:0.00128364 15:0.00128364 16:0.00128364 17:0.00128364 18:0.00128364 19:0.00279221 20:0.00279221 21:0.00279221 22:0.00279221 23:0.00279221 24:0.00279221 25:0.00279221 26:0.00279221 27:0.00279221 28:0.332581 29:0.332581 30:0.332581 31:0.332581 32:0.332581 33:0.332581 34:0.332581 35:0.332581 36:0.332581 37:0.00275919 38:0.00275919 39:0.00275919 40:0.00275919 41:0.00275919 42:0.00275919 43:0.00275919 44:0.00275919 45:0.00275919 46:0.328647 47:0.328647 48:0.328647 49:0.328647 50:0.328647 51:0.328647 52:0.328647 53:0.328647 54:0.328647 55:0.0297212 56:0.0297212 57:0.0297212 58:0.0297212 59:0.0297212 60:0.0297212 61:0.0297212 62:0.0297212 63:0.0297212 64:0.0470253 65:0.0470253 66:0.0470253 67:0.0470253 68:0.0470253 69:0.0470253 70:0.0470253 71:0.0470253 72:0.0470253 73:0.136785 74:0.136785 75:0.136785 76:0.136785 77:0.136785 78:0.136785 79:0.136785 80:0.136785 81:0.136785 82:0.216423 83:0.216423 84:0.216423 85:0.216423 86:0.216423 87:0.216423 88:0.216423 89:0.216423 90:0.216423 91:0.0312259 92:0.0312259 93:0.0312259 94:0.0312259 95:0.0312259 96:0.0312259 97:0.0312259 98:0.0312259 99:0.0312259 100:0.211156 101:0.211156 102:0.211156 103:0.211156 104:0.211156 105:0.211156 106:0.211156 107:0.211156 108:0.211156 109:0.222993 110:0.222993 111:0.222993 112:0.222993 113:0.222993 114:0.222993 115:0.222993 116:0.222993 117:0.222993 118:0.217399 119:0.217399 120:0.217399 121:0.217399 122:0.217399 123:0.217399 124:0.217399 125:0.217399 126:0.217399 127:0.118712 128:0.118712 129:0.118712 130:0.118712 131:0.118712 132:0.118712 133:0.118712 134:0.118712 135:0.118712 136:0.00554014 137:0.00554014 138:0.00554014 139:0.00554014 140:0.00554014 141:0.00554014 142:0.00554014 143:0.00554014 144:0.00554014 145:0.00999899 146:0.00999899 147:0.00999899 148:0.00999899 149:0.00999899 150:0.00999899 151:0.00999899 152:0.00999899 153:0.00999899 154:0.000466642 155:0.000466642 156:0.000466642 157:0.000466642 158:0.000466642 159:0.000466642 160:0.000466642 161:0.000466642 162:0.000466642 163:0.00231317 164:0.00231317 165:0.00231317 166:0.00231317 167:0.00231317 168:0.00231317 169:0.00231317 170:0.00231317 171:0.00231317 172:0.333175 173:0.333175 174:0.333175 175:0.333175 176:0.333175 177:0.333175 178:0.333175 179:0.333175 180:0.333175 181:0.00231421 182:0.00231421 183:0.00231421 184:0.00231421 185:0.00231421 186:0.00231421 187:0.00231421 188:0.00231421 189:0.00231421 190:0.333325 191:0.333325 192:0.333325 193:0.333325 194:0.333325 195:0.333325 196:0.333325 197:0.333325 198:0.333325 199:0 200:0 201:0 202:0 203:0 204:0 205:0 206:0 207:0 208:0 209:0 210:0 211:0 212:0 213:0 214:0 215:0 216:0 217:0.17377 218:0.17377 219:0.17377 220:0.17377 221:0.17377 222:0.17377 223:0.17377 224:0.17377 225:0.17377 226:0.0583991 227:0.0583991 228:0.0583991 229:0.0583991 230:0.0583991 231:0.0583991 232:0.0583991 233:0.0583991 234:0.0583991 235:0.261544 236:0.261544 237:0.261544 238:0.261544 239:0.261544 240:0.261544 241:0.261544 242:0.261544 243:0.261544 244:0.0953895 245:0.0953895 246:0.0953895 247:0.0953895 248:0.0953895 249:0.0953895 250:0.0953895 251:0.0953895 252:0.0953895 253:0.22087 254:0.22087 255:0.22087 256:0.22087 257:0.22087 258:0.22087 259:0.22087 260:0.22087 261:0.22087 262:0.0805549 263:0.0805549 264:0.0805549 265:0.0805549 266:0.0805549 267:0.0805549 268:0.0805549 269:0.0805549 270:0.0805549 271:0.236225 272:0.236225 273:0.236225 274:0.236225 275:0.236225 276:0.236225 277:0.236225 278:0.236225 279:0.236225 280:0.00601506 281:0.00601506 282:0.00601506 283:0.00601506 284:0.00601506 285:0.00601506 286:0.00601506 287:0.00601506 288:0.00601506 289:0.00523239 290:0.00523239 291:0.00523239 292:0.00523239 293:0.00523239 294:0.00523239 295:0.00523239 296:0.00523239 297:0.00523239 298:0.000133234 299:0.000133234 300:0.000133234 301:0.000133234 302:0.000133234 303:0.000133234 304:0.000133234 305:0.000133234 306:0.000133234 307:0.0010281 308:0.0010281 309:0.0010281 310:0.0010281 311:0.0010281 312:0.0010281 313:0.0010281 314:0.0010281 315:0.0010281 316:0.333291 317:0.333291 318:0.333291 319:0.333291 320:0.333291 321:0.333291 322:0.333291 323:0.333291 324:0.333291 325:0.320102 326:0.320102 327:0.320102 328:0.320102 329:0.320102 330:0.320102 331:0.320102 332:0.320102 333:0.320102 334:0.0771841 335:0.0771841 336:0.0771841 337:0.0771841 338:0.0771841 339:0.0771841 340:0.0771841 341:0.0771841 342:0.0771841 343:0.00320376 344:0.00320376 345:0.00320376 346:0.00320376 347:0.00320376 348:0.00320376 349:0.00320376 350:0.00320376 351:0.00320376 352:0.0517518 353:0.0517518 354:0.0517518 355:0.0517518 356:0.0517518 357:0.0517518 358:0.0517518 359:0.0517518 360:0.0517518 361:0.000366503 362:0.000366503 363:0.000366503 364:0.000366503 365:0.000366503 366:0.000366503 367:0.000366503 368:0.000366503 369:0.000366503 370:0.0059203 371:0.0059203 372:0.0059203 373:0.0059203 374:0.0059203 375:0.0059203 376:0.0059203 377:0.0059203 378:0.0059203 379:0.21651 380:0.21651 381:0.21651 382:0.21651 383:0.21651 384:0.21651 385:0.21651 386:0.21651 387:0.21651 388:0.253376 389:0.253376 390:0.253376 391:0.253376 392:0.253376 393:0.253376 394:0.253376 395:0.253376 396:0.253376 397:0.209991 398:0.209991 399:0.209991 400:0.209991 401:0.209991 402:0.209991 403:0.209991 404:0.209991 405:0.209991 406:0.245747 407:0.245747 408:0.245747 409:0.245747 410:0.245747 411:0.245747 412:0.245747 413:0.245747 414:0.245747 415:0.0813705 416:0.0813705 417:0.0813705 418:0.0813705 419:0.0813705 420:0.0813705 421:0.0813705 422:0.0813705 423:0.0813705 424:0.00145976 425:0.00145976 426:0.00145976 427:0.00145976 428:0.00145976 429:0.00145976 430:0.00145976 431:0.00145976 432:0.00145976 433:0.106273 434:0.106273 435:0.106273 436:0.106273 437:0.106273 438:0.106273 439:0.106273 440:0.106273 441:0.106273 442:0.0323433 443:0.0323433 444:0.0323433 445:0.0323433 446:0.0323433 447:0.0323433 448:0.0323433 449:0.0323433 450:0.0323433 451:0.205594 452:0.205594 453:0.205594 454:0.205594 455:0.205594 456:0.205594 457:0.205594 458:0.205594 459:0.205594 460:0.237702 461:0.237702 462:0.237702 463:0.237702 464:0.237702 465:0.237702 466:0.237702 467:0.237702 468:0.237702 469:0.0979773 470:0.0979773 471:0.0979773 472:0.0979773 473:0.0979773 474:0.0979773 475:0.0979773 476:0.0979773 477:0.0979773 478:0.113278 479:0.113278 480:0.113278 481:0.113278 482:0.113278 483:0.113278 484:0.113278 485:0.113278 486:0.113278 487:0.0957961 488:0.0957961 489:0.0957961 490:0.0957961 491:0.0957961 492:0.0957961 493:0.0957961 494:0.0957961 495:0.0957961 496:0.281962 497:0.281962 498:0.281962 499:0.281962 500:0.281962 501:0.281962 502:0.281962 503:0.281962 504:0.281962 505:0.107049 506:0.107049 507:0.107049 508:0.107049 509:0.107049 510:0.107049 511:0.107049 512:0.107049 513:0.107049 514:0.315083 515:0.315083 516:0.315083 517:0.315083 518:0.315083 519:0.315083 520:0.315083 521:0.315083 522:0.315083 523:0.00626148 524:0.00626148 525:0.00626148 526:0.00626148 527:0.00626148 528:0.00626148 529:0.00626148 530:0.00626148 531:0.00626148 532:0.0183011 533:0.0183011 534:0.0183011 535:0.0183011 536:0.0183011 537:0.0183011 538:0.0183011 539:0.0183011 540:0.0183011 541:0.0763001 542:0.0763001 543:0.0763001 544:0.0763001 545:0.0763001 546:0.0763001 547:0.0763001 548:0.0763001 549:0.0763001 550:0.0763001 551:0.0763001 552:0.0763001 553:0.0763001 554:0.0763001 555:0.0763001 556:0.0763001 557:0.0763001 558:0.0763001 559:0.223011 560:0.223011 561:0.223011 562:0.223011 563:0.223011 564:0.223011 565:0.223011 566:0.223011 567:0.223011 568:0.223011 569:0.223011 570:0.223011 571:0.223011 572:0.223011 573:0.223011 574:0.223011 575:0.223011 576:0.223011 577:0.21857 578:0.21857 579:0.21857 580:0.21857 581:0.21857 582:0.21857 583:0.21857 584:0.21857 585:0.21857 586:0.21857 587:0.21857 588:0.21857 589:0.21857 590:0.21857 591:0.21857 592:0.21857 593:0.21857 594:0.21857 595:1.4013e-45 596:1.4013e-45 597:1.4013e-45 598:1.4013e-45 599:1.4013e-45 600:1.4013e-45 601:1.4013e-45 602:1.4013e-45 603:1.4013e-45 604:0.124763 605:0.124763 606:0.124763 607:0.124763 608:0.124763 609:0.124763 610:0.124763 611:0.124763 612:0.124763 613:0 614:0 615:0 616:0 617:0 618:0 619:0 620:0 621:0 622:1.70214e-08 623:1.70214e-08 624:1.70214e-08 625:1.70214e-08 626:1.70214e-08 627:1.70214e-08 628:1.70214e-08 629:1.70214e-08 630:1.70214e-08 631:0.333333 632:0.333333 633:0.333333 634:0.333333 635:0.333333 636:0.333333 637:0.333333 638:0.333333 639:0.333333 640:0 641:0 642:0 643:0 644:0 645:0 646:0 647:0 648:0 649:0.333333 650:0.333333 651:0.333333 652:0.333333 653:0.333333 654:0.333333 655:0.333333 656:0.333333 657:0.333333 658:0.000341903 659:0.000341903 660:0.000341903 661:0.000341903 662:0.000341903 663:0.000341903 664:0.000341903 665:0.000341903 666:0.000341903 667:0 668:0 669:0 670:0 671:0 672:0 673:0 674:0 675:0 676:0 677:0 678:0 679:0 680:0 681:0 682:0 683:0 684:0 685:0 686:0 687:0 688:0 689:0 690:0 691:0 692:0 693:0 694:0 695:0 696:0 697:0 698:0 699:0 700:0 701:0 702:0 703:0.333333 704:0.333333 705:0.333333 706:0.333333 707:0.333333 708:0.333333 709:0.333333 710:0.333333 711:0.333333 712:1.4013e-45 713:1.4013e-45 714:1.4013e-45 715:1.4013e-45 716:1.4013e-45 717:1.4013e-45 718:1.4013e-45 719:1.4013e-45 720:1.4013e-45 721:0.00119666 722:0.00119666 723:0.00119666 724:0.00119666 725:0.00119666 726:0.00119666 727:0.00119666 728:0.00119666 729:0.00119666 730:0 731:0 732:0 733:0 734:0 735:0 736:0 737:0 738:0 739:0.333331 740:0.333331 741:0.333331 742:0.333331 743:0.333331 744:0.333331 745:0.333331 746:0.333331 747:0.333331 748:0 749:0 750:0 751:0 752:0 753:0 754:0 755:0 756:0 
915.2005499969001 1:0.0187878 2:0.0187878 3:0.0187878 4:0.0187878 5:0.0187878 6:0.0187878 7:0.0187878 8:0.0187878 9:0.0187878 10:0.00190529 11:0.00190529 12:0.00190529 13:0.00190529 14:0.00190529 15:0.00190529 16:0.00190529 17:0.00190529 18:0.00190529 19:0.00381139 20:0.00381139 21:0.00381139 22:0.00381139 23:0.00381139 24:0.00381139 25:0.00381139 26:0.00381139 27:0.00381139 28:0.332776 29:0.332776 30:0.332776 31:0.332776 32:0.332776 33:0.332776 34:0.332776 35:0.332776 36:0.332776 37:0.00375934 38:0.00375934 39:0.00375934 40:0.00375934 41:0.00375934 42:0.00375934 43:0.00375934 44:0.00375934 45:0.00375934 46:0.328231 47:0.328231 48:0.328231 49:0.328231 50:0.328231 51:0.328231 52:0.328231 53:0.328231 54:0.328231 55:0.0311724 56:0.0311724 57:0.0311724 58:0.0311724 59:0.0311724 60:0.0311724 61:0.0311724 62:0.0311724 63:0.0311724 64:0.0488833 65:0.0488833 66:0.0488833 67:0.0488833 68:0.0488833 69:0.0488833 70:0.0488833 71:0.0488833 72:0.0488833 73:0.129772 74:0.129772 75:0.129772 76:0.129772 77:0.129772 78:0.129772 79:0.129772 80:0.129772 81:0.129772 82:0.203504 83:0.203504 84:0.203504 85:0.203504 86:0.203504 87:0.203504 88:0.203504 89:0.203504 90:0.203504 91:0.0264626 92:0.0264626 93:0.0264626 94:0.0264626 95:0.0264626 96:0.0264626 97:0.0264626 98:0.0264626 99:0.0264626 100:0.228377 101:0.228377 102:0.228377 103:0.228377 104:0.228377 105:0.228377 106:0.228377 107:0.228377 108:0.228377 109:0.225619 110:0.225619 111:0.225619 112:0.225619 113:0.225619 114:0.225619 115:0.225619 116:0.225619 117:0.225619 118:0.204335 119:0.204335 120:0.204335 121:0.204335 122:0.204335 123:0.204335 124:0.204335 125:0.204335 126:0.204335 127:0.135174 128:0.135174 129:0.135174 130:0.135174 131:0.135174 132:0.135174 133:0.135174 134:0.135174 135:0.135174 136:0.0135055 137:0.0135055 138:0.0135055 139:0.0135055 140:0.0135055 141:0.0135055 142:0.0135055 143:0.0135055 144:0.0135055 145:0.0113722 146:0.0113722 147:0.0113722 148:0.0113722 149:0.0113722 150:0.0113722 151:0.0113722 152:0.0113722 153:0.0113722 154:0.00113622 155:0.00113622 156:0.00113622 157:0.00113622 158:0.00113622 159:0.00113622 160:0.00113622 161:0.00113622 162:0.00113622 163:0.00321291 164:0.00321291 165:0.00321291 166:0.00321291 167:0.00321291 168:0.00321291 169:0.00321291 170:0.00321291 171:0.00321291 172:0.333122 173:0.333122 174:0.333122 175:0.333122 176:0.333122 177:0.333122 178:0.333122 179:0.333122 180:0.333122 181:0.0032148 182:0.0032148 183:0.0032148 184:0.0032148 185:0.0032148 186:0.0032148 187:0.0032148 188:0.0032148 189:0.0032148 190:0.333318 191:0.333318 192:0.333318 193:0.333318 194:0.333318 195:0.333318 196:0.333318 197:0.333318 198:0.333318 199:0 200:0 201:0 202:0 203:0 204:0 205:0 206:0 207:0 208:0 209:0 210:0 211:0 212:0 213:0 214:0 215:0 216:0 217:0.163241 218:0.163241 219:0.163241 220:0.163241 221:0.163241 222:0.163241 223:0.163241 224:0.163241 225:0.163241 226:0.0557713 227:0.0557713 228:0.0557713 229:0.0557713 230:0.0557713 231:0.0557713 232:0.0557713 233:0.0557713 234:0.0557713 235:0.269594 236:0.269594 237:0.269594 238:0.269594 239:0.269594 240:0.269594 241:0.269594 242:0.269594 243:0.269594 244:0.0931248 245:0.0931248 246:0.0931248 247:0.0931248 248:0.0931248 249:0.0931248 250:0.0931248 251:0.0931248 252:0.0931248 253:0.315053 254:0.315053 255:0.315053 256:0.315053 257:0.315053 258:0.315053 259:0.315053 260:0.315053 261:0.315053 262:0.108828 263:0.108828 264:0.108828 265:0.108828 266:0.108828 267:0.108828 268:0.108828 269:0.108828 270:0.108828 271:0.00300459 272:0.00300459 273:0.00300459 274:0.00300459 275:0.00300459 276:0.00300459 277:0.00300459 278:0.00300459 279:0.00300459 280:0.000657352 281:0.000657352 282:0.000657352 283:0.000657352 284:0.000657352 285:0.000657352 286:0.000657352 287:0.000657352 288:0.000657352 289:6.04735e-05 290:6.04735e-05 291:6.04735e-05 292:6.04735e-05 293:6.04735e-05 294:6.04735e-05 295:6.04735e-05 296:6.04735e-05 297:6.04735e-05 298:1.32306e-05 299:1.32306e-05 300:1.32306e-05 301:1.32306e-05 302:1.32306e-05 303:1.32306e-05 304:1.32306e-05 305:1.32306e-05 306:1.32306e-05 307:0.00159502 308:0.00159502 309:0.00159502 310:0.00159502 311:0.00159502 312:0.00159502 313:0.00159502 314:0.00159502 315:0.00159502 316:0.33333 317:0.33333 318:0.33333 319:0.33333 320:0.33333 321:0.33333 322:0.33333 323:0.33333 324:0.33333 325:0.322496 326:0.322496 327:0.322496 328:0.322496 329:0.322496 330:0.322496 331:0.322496 332:0.322496 333:0.322496 334:0.0232396 335:0.0232396 336:0.0232396 337:0.0232396 338:0.0232396 339:0.0232396 340:0.0232396 341:0.0232396 342:0.0232396 343:0 344:0 345:0 346:0 347:0 348:0 349:0 350:0 351:0 352:0.0810394 353:0.0810394 354:0.0810394 355:0.0810394 356:0.0810394 357:0.0810394 358:0.0810394 359:0.0810394 360:0.0810394 361:0 362:0 363:0 364:0 365:0 366:0 367:0 368:0 369:0 370:0.00804823 371:0.00804823 372:0.00804823 373:0.00804823 374:0.00804823 375:0.00804823 376:0.00804823 377:0.00804823 378:0.00804823 379:0.224266 380:0.224266 381:0.224266 382:0.224266 383:0.224266 384:0.224266 385:0.224266 386:0.224266 387:0.224266 388:0.246477 389:0.246477 390:0.246477 391:0.246477 392:0.246477 393:0.246477 394:0.246477 395:0.246477 396:0.246477 397:0.223974 398:0.223974 399:0.223974 400:0.223974 401:0.223974 402:0.223974 403:0.223974 404:0.223974 405:0.223974 406:0.246156 407:0.246156 408:0.246156 409:0.246156 410:0.246156 411:0.246156 412:0.246156 413:0.246156 414:0.246156 415:0.0187221 416:0.0187221 417:0.0187221 418:0.0187221 419:0.0187221 420:0.0187221 421:0.0187221 422:0.0187221 423:0.0187221 424:0.00179564 425:0.00179564 426:0.00179564 427:0.00179564 428:0.00179564 429:0.00179564 430:0.00179564 431:0.00179564 432:0.00179564 433:0.085901 434:0.085901 435:0.085901 436:0.085901 437:0.085901 438:0.085901 439:0.085901 440:0.085901 441:0.085901 442:0.0624849 443:0.0624849 444:0.0624849 445:0.0624849 446:0.0624849 447:0.0624849 448:0.0624849 449:0.0624849 450:0.0624849 451:0.213789 452:0.213789 453:0.213789 454:0.213789 455:0.213789 456:0.213789 457:0.213789 458:0.213789 459:0.213789 460:0.232641 461:0.232641 462:0.232641 463:0.232641 464:0.232641 465:0.232641 466:0.232641 467:0.232641 468:0.232641 469:0.106649 470:0.106649 471:0.106649 472:0.106649 473:0.106649 474:0.106649 475:0.106649 476:0.106649 477:0.106649 478:0.116053 479:0.116053 480:0.116053 481:0.116053 482:0.116053 483:0.116053 484:0.116053 485:0.116053 486:0.116053 487:0.0855757 488:0.0855757 489:0.0855757 490:0.0855757 491:0.0855757 492:0.0855757 493:0.0855757 494:0.0855757 495:0.0855757 496:0.280973 497:0.280973 498:0.280973 499:0.280973 500:0.280973 501:0.280973 502:0.280973 503:0.280973 504:0.280973 505:0.0969899 506:0.0969899 507:0.0969899 508:0.0969899 509:0.0969899 510:0.0969899 511:0.0969899 512:0.0969899 513:0.0969899 514:0.318449 515:0.318449 516:0.318449 517:0.318449 518:0.318449 519:0.318449 520:0.318449 521:0.318449 522:0.318449 523:0.00371042 524:0.00371042 525:0.00371042 526:0.00371042 527:0.00371042 528:0.00371042 529:0.00371042 530:0.00371042 531:0.00371042 532:0.0167434 533:0.0167434 534:0.0167434 535:0.0167434 536:0.0167434 537:0.0167434 538:0.0167434 539:0.0167434 540:0.0167434 541:0.0026994 542:0.0026994 543:0.0026994 544:0.0026994 545:0.0026994 546:0.0026994 547:0.0026994 548:0.0026994 549:0.0026994 550:0.0026994 551:0.0026994 552:0.0026994 553:0.0026994 554:0.0026994 555:0.0026994 556:0.0026994 557:0.0026994 558:0.0026994 559:0.235687 560:0.235687 561:0.235687 562:0.235687 563:0.235687 564:0.235687 565:0.235687 566:0.235687 567:0.235687 568:0.235687 569:0.235687 570:0.235687 571:0.235687 572:0.235687 573:0.235687 574:0.235687 575:0.235687 576:0.235687 577:0.235702 578:0.235702 579:0.235702 580:0.235702 581:0.235702 582:0.235702 583:0.235702 584:0.235702 585:0.235702 586:0.235702 587:0.235702 588:0.235702 589:0.235702 590:0.235702 591:0.235702 592:0.235702 593:0.235702 594:0.235702 595:0 596:0 597:0 598:0 599:0 600:0 601:0 602:0 603:0 604:0 605:0 606:0 607:0 608:0 609:0 610:0 611:0 612:0 613:0 614:0 615:0 616:0 617:0 618:0 619:0 620:0 621:0 622:0 623:0 624:0 625:0 626:0 627:0 628:0 629:0 630:0 631:0 632:0 633:0 634:0 635:0 636:0 637:0 638:0 639:0 640:0 641:0 642:0 643:0 644:0 645:0 646:0 647:0 648:0 649:0 650:0 651:0 652:0 653:0 654:0 655:0 656:0 657:0 658:0 659:0 660:0 661:0 662:0 663:0 664:0 665:0 666:0 667:0 668:0 669:0 670:0 671:0 672:0 673:0 674:0 675:0 676:0 677:0 678:0 679:0 680:0 681:0 682:0 683:0 684:0 685:0 686:0 687:0 688:0 689:0 690:0 691:0 692:0 693:0 694:0 695:0 696:0 697:0 698:0 699:0 700:0 701:0 702:0 703:0 704:0 705:0 706:0 707:0 708:0 709:0 710:0 711:0 712:0 713:0 714:0 715:0 716:0 717:0 718:0 719:0 720:0 721:0 722:0 723:0 724:0 725:0 726:0 727:0 728:0 729:0 730:0 731:0 732:0 733:0 734:0 735:0 736:0 737:0 738:0 739:0 740:0 741:0 742:0 743:0 744:0 745:0 746:0 747:0 748:0 749:0 750:0 751:0 752:0 753:0 754:0 755:0 756:0 
3976.099114022617 1:0.0220913 2:0.0220913 3:0.0220913 4:0.0220913 5:0.0220913 6:0.0220913 7:0.0220913 8:0.0220913 9:0.0220913 10:0.00192096 11:0.00192096 12:0.00192096 13:0.00192096 14:0.00192096 15:0.00192096 16:0.00192096 17:0.00192096 18:0.00192096 19:0.00391989 20:0.00391989 21:0.00391989 22:0.00391989 23:0.00391989 24:0.00391989 25:0.00391989 26:0.00391989 27:0.00391989 28:0.332572 29:0.332572 30:0.332572 31:0.332572 32:0.332572 33:0.332572 34:0.332572 35:0.332572 36:0.332572 37:0.003867 38:0.003867 39:0.003867 40:0.003867 41:0.003867 42:0.003867 43:0.003867 44:0.003867 45:0.003867 46:0.328085 47:0.328085 48:0.328085 49:0.328085 50:0.328085 51:0.328085 52:0.328085 53:0.328085 54:0.328085 55:0.0325165 56:0.0325165 57:0.0325165 58:0.0325165 59:0.0325165 60:0.0325165 61:0.0325165 62:0.0325165 63:0.0325165 64:0.0489822 65:0.0489822 66:0.0489822 67:0.0489822 68:0.0489822 69:0.0489822 70:0.0489822 71:0.0489822 72:0.0489822 73:0.139274 74:0.139274 75:0.139274 76:0.139274 77:0.139274 78:0.139274 79:0.139274 80:0.139274 81:0.139274 82:0.2098 83:0.2098 84:0.2098 85:0.2098 86:0.2098 87:0.2098 88:0.2098 89:0.2098 90:0.2098 91:0.0371303 92:0.0371303 93:0.0371303 94:0.0371303 95:0.0371303 96:0.0371303 97:0.0371303 98:0.0371303 99:0.0371303 100:0.215219 101:0.215219 102:0.215219 103:0.215219 104:0.215219 105:0.215219 106:0.215219 107:0.215219 108:0.215219 109:0.216332 110:0.216332 111:0.216332 112:0.216332 113:0.216332 114:0.216332 115:0.216332 116:0.216332 117:0.216332 118:0.230044 119:0.230044 120:0.230044 121:0.230044 122:0.230044 123:0.230044 124:0.230044 125:0.230044 126:0.230044 127:0.106696 128:0.106696 129:0.106696 130:0.106696 131:0.106696 132:0.106696 133:0.106696 134:0.106696 135:0.106696 136:0.00271187 137:0.00271187 138:0.00271187 139:0.00271187 140:0.00271187 141:0.00271187 142:0.00271187 143:0.00271187 144:0.00271187 145:0.00911785 146:0.00911785 147:0.00911785 148:0.00911785 149:0.00911785 150:0.00911785 151:0.00911785 152:0.00911785 153:0.00911785 154:0.000231747 155:0.000231747 156:0.000231747 157:0.000231747 158:0.000231747 159:0.000231747 160:0.000231747 161:0.000231747 162:0.000231747 163:0.00325206 164:0.00325206 165:0.00325206 166:0.00325206 167:0.00325206 168:0.00325206 169:0.00325206 170:0.00325206 171:0.00325206 172:0.333193 173:0.333193 174:0.333193 175:0.333193 176:0.333193 177:0.333193 178:0.333193 179:0.333193 180:0.333193 181:0.00325328 182:0.00325328 183:0.00325328 184:0.00325328 185:0.00325328 186:0.00325328 187:0.00325328 188:0.00325328 189:0.00325328 190:0.333317 191:0.333317 192:0.333317 193:0.333317 194:0.333317 195:0.333317 196:0.333317 197:0.333317 198:0.333317 199:0 200:0 201:0 202:0 203:0 204:0 205:0 206:0 207:0 208:0 209:0 210:0 211:0 212:0 213:0 214:0 215:0 216:0 217:0.144388 218:0.144388 219:0.144388 220:0.144388 221:0.144388 222:0.144388 223:0.144388 224:0.144388 225:0.144388 226:0.0544545 227:0.0544545 228:0.0544545 229:0.0544545 230:0.0544545 231:0.0544545 232:0.0544545 233:0.0544545 234:0.0544545 235:0.291108 236:0.291108 237:0.291108 238:0.291108 239:0.291108 240:0.291108 241:0.291108 242:0.291108 243:0.291108 244:0.0505387 245:0.0505387 246:0.0505387 247:0.0505387 248:0.0505387 249:0.0505387 250:0.0505387 251:0.0505387 252:0.0505387 253:0.279205 254:0.279205 255:0.279205 256:0.279205 257:0.279205 258:0.279205 259:0.279205 260:0.279205 261:0.279205 262:0.0484723 263:0.0484723 264:0.0484723 265:0.0484723 266:0.0484723 267:0.0484723 268:0.0484723 269:0.0484723 270:0.0484723 271:0.175052 272:0.175052 273:0.175052 274:0.175052 275:0.175052 276:0.175052 277:0.175052 278:0.175052 279:0.175052 280:0.0127566 281:0.0127566 282:0.0127566 283:0.0127566 284:0.0127566 285:0.0127566 286:0.0127566 287:0.0127566 288:0.0127566 289:0.00481519 290:0.00481519 291:0.00481519 292:0.00481519 293:0.00481519 294:0.00481519 295:0.00481519 296:0.00481519 297:0.00481519 298:0.000350899 299:0.000350899 300:0.000350899 301:0.000350899 302:0.000350899 303:0.000350899 304:0.000350899 305:0.000350899 306:0.000350899 307:0.000874776 308:0.000874776 309:0.000874776 310:0.000874776 311:0.000874776 312:0.000874776 313:0.000874776 314:0.000874776 315:0.000874776 316:0.333297 317:0.333297 318:0.333297 319:0.333297 320:0.333297 321:0.333297 322:0.333297 323:0.333297 324:0.333297 325:0.327924 326:0.327924 327:0.327924 328:0.327924 329:0.327924 330:0.327924 331:0.327924 332:0.327924 333:0.327924 334:0.0494935 335:0.0494935 336:0.0494935 337:0.0494935 338:0.0494935 339:0.0494935 340:0.0494935 341:0.0494935 342:0.0494935 343:0.0309393 344:0.0309393 345:0.0309393 346:0.0309393 347:0.0309393 348:0.0309393 349:0.0309393 350:0.0309393 351:0.0309393 352:0.0130458 353:0.0130458 354:0.0130458 355:0.0130458 356:0.0130458 357:0.0130458 358:0.0130458 359:0.0130458 360:0.0130458 361:0.0032811 362:0.0032811 363:0.0032811 364:0.0032811 365:0.0032811 366:0.0032811 367:0.0032811 368:0.0032811 369:0.0032811 370:0.0013835 371:0.0013835 372:0.0013835 373:0.0013835 374:0.0013835 375:0.0013835 376:0.0013835 377:0.0013835 378:0.0013835 379:0.206399 380:0.206399 381:0.206399 382:0.206399 383:0.206399 384:0.206399 385:0.206399 386:0.206399 387:0.206399 388:0.261721 389:0.261721 390:0.261721 391:0.261721 392:0.261721 393:0.261721 394:0.261721 395:0.261721 396:0.261721 397:0.204174 398:0.204174 399:0.204174 400:0.204174 401:0.204174 402:0.204174 403:0.204174 404:0.204174 405:0.204174 406:0.258901 407:0.258901 408:0.258901 409:0.258901 410:0.258901 411:0.258901 412:0.258901 413:0.258901 414:0.258901 415:0.0489307 416:0.0489307 417:0.0489307 418:0.0489307 419:0.0489307 420:0.0489307 421:0.0489307 422:0.0489307 423:0.0489307 424:0.000491342 425:0.000491342 426:0.000491342 427:0.000491342 428:0.000491342 429:0.000491342 430:0.000491342 431:0.000491342 432:0.000491342 433:0.0770925 434:0.0770925 435:0.0770925 436:0.0770925 437:0.0770925 438:0.0770925 439:0.0770925 440:0.0770925 441:0.0770925 442:0.0312052 443:0.0312052 444:0.0312052 445:0.0312052 446:0.0312052 447:0.0312052 448:0.0312052 449:0.0312052 450:0.0312052 451:0.196409 452:0.196409 453:0.196409 454:0.196409 455:0.196409 456:0.196409 457:0.196409 458:0.196409 459:0.196409 460:0.256159 461:0.256159 462:0.256159 463:0.256159 464:0.256159 465:0.256159 466:0.256159 467:0.256159 468:0.256159 469:0.0903596 470:0.0903596 471:0.0903596 472:0.0903596 473:0.0903596 474:0.0903596 475:0.0903596 476:0.0903596 477:0.0903596 478:0.117848 479:0.117848 480:0.117848 481:0.117848 482:0.117848 483:0.117848 484:0.117848 485:0.117848 486:0.117848 487:0.0800124 488:0.0800124 489:0.0800124 490:0.0800124 491:0.0800124 492:0.0800124 493:0.0800124 494:0.0800124 495:0.0800124 496:0.2875 497:0.2875 498:0.2875 499:0.2875 500:0.2875 501:0.2875 502:0.2875 503:0.2875 504:0.2875 505:0.0893085 506:0.0893085 507:0.0893085 508:0.0893085 509:0.0893085 510:0.0893085 511:0.0893085 512:0.0893085 513:0.0893085 514:0.320903 515:0.320903 516:0.320903 517:0.320903 518:0.320903 519:0.320903 520:0.320903 521:0.320903 522:0.320903 523:0.00298287 524:0.00298287 525:0.00298287 526:0.00298287 527:0.00298287 528:0.00298287 529:0.00298287 530:0.00298287 531:0.00298287 532:0.0121535 533:0.0121535 534:0.0121535 535:0.0121535 536:0.0121535 537:0.0121535 538:0.0121535 539:0.0121535 540:0.0121535 541:0.0561816 542:0.0561816 543:0.0561816 544:0.0561816 545:0.0561816 546:0.0561816 547:0.0561816 548:0.0561816 549:0.0561816 550:0.0561816 551:0.0561816 552:0.0561816 553:0.0561816 554:0.0561816 555:0.0561816 556:0.0561816 557:0.0561816 558:0.0561816 559:0.228909 560:0.228909 561:0.228909 562:0.228909 563:0.228909 564:0.228909 565:0.228909 566:0.228909 567:0.228909 568:0.228909 569:0.228909 570:0.228909 571:0.228909 572:0.228909 573:0.228909 574:0.228909 575:0.228909 576:0.228909 577:0.235702 578:0.235702 579:0.235702 580:0.235702 581:0.235702 582:0.235702 583:0.235702 584:0.235702 585:0.235702 586:0.235702 587:0.235702 588:0.235702 589:0.235702 590:0.235702 591:0.235702 592:0.235702 593:0.235702 594:0.235702 595:1.4013e-45 596:1.4013e-45 597:1.4013e-45 598:1.4013e-45 599:1.4013e-45 600:1.4013e-45 601:1.4013e-45 602:1.4013e-45 603:1.4013e-45 604:0 605:0 606:0 607:0 608:0 609:0 610:0 611:0 612:0 613:0 614:0 615:0 616:0 617:0 618:0 619:0 620:0 621:0 622:0 623:0 624:0 625:0 626:0 627:0 628:0 629:0 630:0 631:0.333333 632:0.333333 633:0.333333 634:0.333333 635:0.333333 636:0.333333 637:0.333333 638:0.333333 639:0.333333 640:0 641:0 642:0 643:0 644:0 645:0 646:0 647:0 648:0 649:0 650:0 651:0 652:0 653:0 654:0 655:0 656:0 657:0 658:0 659:0 660:0 661:0 662:0 663:0 664:0 665:0 666:0 667:0 668:0 669:0 670:0 671:0 672:0 673:0 674:0 675:0 676:0 677:0 678:0 679:0 680:0 681:0 682:0 683:0 684:0 685:0 686:0 687:0 688:0 689:0 690:0 691:0 692:0 693:0 694:0 695:0 696:0 697:0 698:0 699:0 700:0 701:0 702:0 703:0 704:0 705:0 706:0 707:0 708:0 709:0 710:0 711:0 712:0 713:0 714:0 715:0 716:0 717:0 718:0 719:0 720:0 721:0 722:0 723:0 724:0 725:0 726:0 727:0 728:0 729:0 730:0 731:0 732:0 733:0 734:0 735:0 736:0 737:0 738:0 739:0 740:0 741:0 742:0 743:0 744:0 745:0 746:0 747:0 748:0 749:0 750:0 751:0 752:0 753:0 754:0 755:0 756:0 
3976.099114022617 1:0.0355991 2:0.0355991 3:0.0355991 4:0.0355991 5:0.0355991 6:0.0355991 7:0.0355991 8:0.0355991 9:0.0355991 10:0.00279684 11:0.00279684 12:0.00279684 13:0.00279684 14:0.00279684 15:0.00279684 16:0.00279684 17:0.00279684 18:0.00279684 19:0.0034726 20:0.0034726 21:0.0034726 22:0.0034726 23:0.0034726 24:0.0034726 25:0.0034726 26:0.0034726 27:0.0034726 28:0.331397 29:0.331397 30:0.331397 31:0.331397 32:0.331397 33:0.331397 34:0.331397 35:0.331397 36:0.331397 37:0.00344181 38:0.00344181 39:0.00344181 40:0.00344181 41:0.00344181 42:0.00344181 43:0.00344181 44:0.00344181 45:0.00344181 46:0.328459 47:0.328459 48:0.328459 49:0.328459 50:0.328459 51:0.328459 52:0.328459 53:0.328459 54:0.328459 55:0.0293957 56:0.0293957 57:0.0293957 58:0.0293957 59:0.0293957 60:0.0293957 61:0.0293957 62:0.0293957 63:0.0293957 64:0.0484755 65:0.0484755 66:0.0484755 67:0.0484755 68:0.0484755 69:0.0484755 70:0.0484755 71:0.0484755 72:0.0484755 73:0.125696 74:0.125696 75:0.125696 76:0.125696 77:0.125696 78:0.125696 79:0.125696 80:0.125696 81:0.125696 82:0.207281 83:0.207281 84:0.207281 85:0.207281 86:0.207281 87:0.207281 88:0.207281 89:0.207281 90:0.207281 91:0.0280914 92:0.0280914 93:0.0280914 94:0.0280914 95:0.0280914 96:0.0280914 97:0.0280914 98:0.0280914 99:0.0280914 100:0.227062 101:0.227062 102:0.227062 103:0.227062 104:0.227062 105:0.227062 106:0.227062 107:0.227062 108:0.227062 109:0.192408 110:0.192408 111:0.192408 112:0.192408 113:0.192408 114:0.192408 115:0.192408 116:0.192408 117:0.192408 118:0.223535 119:0.223535 120:0.223535 121:0.223535 122:0.223535 123:0.223535 124:0.223535 125:0.223535 126:0.223535 127:0.154889 128:0.154889 129:0.154889 130:0.154889 131:0.154889 132:0.154889 133:0.154889 134:0.154889 135:0.154889 136:0.0114792 137:0.0114792 138:0.0114792 139:0.0114792 140:0.0114792 141:0.0114792 142:0.0114792 143:0.0114792 144:0.0114792 145:0.0154687 146:0.0154687 147:0.0154687 148:0.0154687 149:0.0154687 150:0.0154687 151:0.0154687 152:0.0154687 153:0.0154687 154:0.00114642 155:0.00114642 156:0.00114642 157:0.00114642 158:0.00114642 159:0.00114642 160:0.00114642 161:0.00114642 162:0.00114642 163:0.00309383 164:0.00309383 165:0.00309383 166:0.00309383 167:0.00309383 168:0.00309383 169:0.00309383 170:0.00309383 171:0.00309383 172:0.332958 173:0.332958 174:0.332958 175:0.332958 176:0.332958 177:0.332958 178:0.332958 179:0.332958 180:0.332958 181:0.00309719 182:0.00309719 183:0.00309719 184:0.00309719 185:0.00309719 186:0.00309719 187:0.00309719 188:0.00309719 189:0.00309719 190:0.333319 191:0.333319 192:0.333319 193:0.333319 194:0.333319 195:0.333319 196:0.333319 197:0.333319 198:0.333319 199:0 200:0 201:0 202:0 203:0 204:0 205:0 206:0 207:0 208:0 209:0 210:0 211:0 212:0 213:0 214:0 215:0 216:0 217:0.15118 218:0.15118 219:0.15118 220:0.15118 221:0.15118 222:0.15118 223:0.15118 224:0.15118 225:0.15118 226:0.0492089 227:0.0492089 228:0.0492089 229:0.0492089 230:0.0492089 231:0.0492089 232:0.0492089 233:0.0492089 234:0.0492089 235:0.285198 236:0.285198 237:0.285198 238:0.285198 239:0.285198 240:0.285198 241:0.285198 242:0.285198 243:0.285198 244:0.0670567 245:0.0670567 246:0.0670567 247:0.0670567 248:0.0670567 249:0.0670567 250:0.0670567 251:0.0670567 252:0.0670567 253:0.258503 254:0.258503 255:0.258503 256:0.258503 257:0.258503 258:0.258503 259:0.258503 260:0.258503 261:0.258503 262:0.0607802 263:0.0607802 264:0.0607802 265:0.0607802 266:0.0607802 267:0.0607802 268:0.0607802 269:0.0607802 270:0.0607802 271:0.201369 272:0.201369 273:0.201369 274:0.201369 275:0.201369 276:0.201369 277:0.201369 278:0.201369 279:0.201369 280:0.00659879 281:0.00659879 282:0.00659879 283:0.00659879 284:0.00659879 285:0.00659879 286:0.00659879 287:0.00659879 288:0.00659879 289:0.00777653 290:0.00777653 291:0.00777653 292:0.00777653 293:0.00777653 294:0.00777653 295:0.00777653 296:0.00777653 297:0.00777653 298:0.000254833 299:0.000254833 300:0.000254833 301:0.000254833 302:0.000254833 303:0.000254833 304:0.000254833 305:0.000254833 306:0.000254833 307:0.00216558 308:0.00216558 309:0.00216558 310:0.00216558 311:0.00216558 312:0.00216558 313:0.00216558 314:0.00216558 315:0.00216558 316:0.333235 317:0.333235 318:0.333235 319:0.333235 320:0.333235 321:0.333235 322:0.333235 323:0.333235 324:0.333235 325:0.325438 326:0.325438 327:0.325438 328:0.325438 329:0.325438 330:0.325438 331:0.325438 332:0.325438 333:0.325438 334:0.0429488 335:0.0429488 336:0.0429488 337:0.0429488 338:0.0429488 339:0.0429488 340:0.0429488 341:0.0429488 342:0.0429488 343:0.0111306 344:0.0111306 345:0.0111306 346:0.0111306 347:0.0111306 348:0.0111306 349:0.0111306 350:0.0111306 351:0.0111306 352:0.0568591 353:0.0568591 354:0.0568591 355:0.0568591 356:0.0568591 357:0.0568591 358:0.0568591 359:0.0568591 360:0.0568591 361:0.00114738 362:0.00114738 363:0.00114738 364:0.00114738 365:0.00114738 366:0.00114738 367:0.00114738 368:0.00114738 369:0.00114738 370:0.00586122 371:0.00586122 372:0.00586122 373:0.00586122 374:0.00586122 375:0.00586122 376:0.00586122 377:0.00586122 378:0.00586122 379:0.214129 380:0.214129 381:0.214129 382:0.214129 383:0.214129 384:0.214129 385:0.214129 386:0.214129 387:0.214129 388:0.25539 389:0.25539 390:0.25539 391:0.25539 392:0.25539 393:0.25539 394:0.25539 395:0.25539 396:0.25539 397:0.213782 398:0.213782 399:0.213782 400:0.213782 401:0.213782 402:0.213782 403:0.213782 404:0.213782 405:0.213782 406:0.254977 407:0.254977 408:0.254977 409:0.254977 410:0.254977 411:0.254977 412:0.254977 413:0.254977 414:0.254977 415:0.019768 416:0.019768 417:0.019768 418:0.019768 419:0.019768 420:0.019768 421:0.019768 422:0.019768 423:0.019768 424:0.0020865 425:0.0020865 426:0.0020865 427:0.0020865 428:0.0020865 429:0.0020865 430:0.0020865 431:0.0020865 432:0.0020865 433:0.0995503 434:0.0995503 435:0.0995503 436:0.0995503 437:0.0995503 438:0.0995503 439:0.0995503 440:0.0995503 441:0.0995503 442:0.0637367 443:0.0637367 444:0.0637367 445:0.0637367 446:0.0637367 447:0.0637367 448:0.0637367 449:0.0637367 450:0.0637367 451:0.222874 452:0.222874 453:0.222874 454:0.222874 455:0.222874 456:0.222874 457:0.222874 458:0.222874 459:0.222874 460:0.217866 461:0.217866 462:0.217866 463:0.217866 464:0.217866 465:0.217866 466:0.217866 467:0.217866 468:0.217866 469:0.0988234 470:0.0988234 471:0.0988234 472:0.0988234 473:0.0988234 474:0.0988234 475:0.0988234 476:0.0988234 477:0.0988234 478:0.096603 479:0.096603 480:0.096603 481:0.096603 482:0.096603 483:0.096603 484:0.096603 485:0.096603 486:0.096603 487:0.0875157 488:0.0875157 489:0.0875157 490:0.0875157 491:0.0875157 492:0.0875157 493:0.0875157 494:0.0875157 495:0.0875157 496:0.290437 497:0.290437 498:0.290437 499:0.290437 500:0.290437 501:0.290437 502:0.290437 503:0.290437 504:0.290437 505:0.0960074 506:0.0960074 507:0.0960074 508:0.0960074 509:0.0960074 510:0.0960074 511:0.0960074 512:0.0960074 513:0.0960074 514:0.318619 515:0.318619 516:0.318619 517:0.318619 518:0.318619 519:0.318619 520:0.318619 521:0.318619 522:0.318619 523:0.00521164 524:0.00521164 525:0.00521164 526:0.00521164 527:0.00521164 528:0.00521164 529:0.00521164 530:0.00521164 531:0.00521164 532:0.0186732 533:0.0186732 534:0.0186732 535:0.0186732 536:0.0186732 537:0.0186732 538:0.0186732 539:0.0186732 540:0.0186732 541:0.00246971 542:0.00246971 543:0.00246971 544:0.00246971 545:0.00246971 546:0.00246971 547:0.00246971 548:0.00246971 549:0.00246971 550:0.00246971 551:0.00246971 552:0.00246971 553:0.00246971 554:0.00246971 555:0.00246971 556:0.00246971 557:0.00246971 558:0.00246971 559:0.235689 560:0.235689 561:0.235689 562:0.235689 563:0.235689 564:0.235689 565:0.235689 566:0.235689 567:0.235689 568:0.235689 569:0.235689 570:0.235689 571:0.235689 572:0.235689 573:0.235689 574:0.235689 575:0.235689 576:0.235689 577:0.23569 578:0.23569 579:0.23569 580:0.23569 581:0.23569 582:0.23569 583:0.23569 584:0.23569 585:0.23569 586:0.23569 587:0.23569 588:0.23569 589:0.23569 590:0.23569 591:0.23569 592:0.23569 593:0.23569 594:0.23569 595:0.00244782 596:0.00244782 597:0.00244782 598:0.00244782 599:0.00244782 600:0.00244782 601:0.00244782 602:0.00244782 603:0.00244782 604:0.00244782 605:0.00244782 606:0.00244782 607:0.00244782 608:0.00244782 609:0.00244782 610:0.00244782 611:0.00244782 612:0.00244782 613:0.00349232 614:0.00349232 615:0.00349232 616:0.00349232 617:0.00349232 618:0.00349232 619:0.00349232 620:0.00349232 621:0.00349232 622:0.00349232 623:0.00349232 624:0.00349232 625:0.00349232 626:0.00349232 627:0.00349232 628:0.00349232 629:0.00349232 630:0.00349232 631:0.00349232 632:0.00349232 633:0.00349232 634:0.00349232 635:0.00349232 636:0.00349232 637:0.00349232 638:0.00349232 639:0.00349232 640:0.333278 641:0.333278 642:0.333278 643:0.333278 644:0.333278 645:0.333278 646:0.333278 647:0.333278 648:0.333278 649:0.233567 650:0.233567 651:0.233567 652:0.233567 653:0.233567 654:0.233567 655:0.233567 656:0.233567 657:0.233567 658:0.233567 659:0.233567 660:0.233567 661:0.233567 662:0.233567 663:0.233567 664:0.233567 665:0.233567 666:0.233567 667:0.0316537 668:0.0316537 669:0.0316537 670:0.0316537 671:0.0316537 672:0.0316537 673:0.0316537 674:0.0316537 675:0.0316537 676:0.0316537 677:0.0316537 678:0.0316537 679:0.0316537 680:0.0316537 681:0.0316537 682:0.0316537 683:0.0316537 684:0.0316537 685:0.0289397 686:0.0289397 687:0.0289397 688:0.0289397 689:0.0289397 690:0.0289397 691:0.0289397 692:0.0289397 693:0.0289397 694:0.0289397 695:0.0289397 696:0.0289397 697:0.0289397 698:0.0289397 699:0.0289397 700:0.0289397 701:0.0289397 702:0.0289397 703:0.233919 704:0.233919 705:0.233919 706:0.233919 707:0.233919 708:0.233919 709:0.233919 710:0.233919 711:0.233919 712:0.233919 713:0.233919 714:0.233919 715:0.233919 716:0.233919 717:0.233919 718:0.233919 719:0.233919 720:0.233919 721:0.179823 722:0.179823 723:0.179823 724:0.179823 725:0.179823 726:0.179823 727:0.179823 728:0.179823 729:0.179823 730:0.179823 731:0.179823 732:0.179823 733:0.179823 734:0.179823 735:0.179823 736:0.179823 737:0.179823 738:0.179823 739:0.152379 740:0.152379 741:0.152379 742:0.152379 743:0.152379 744:0.152379 745:0.152379 746:0.152379 747:0.152379 748:0.152379 749:0.152379 750:0.152379 751:0.152379 752:0.152379 753:0.152379 754:0.152379 755:0.152379 756:0.152379 
3295.34942210796 1:0.0350731 2:0.0350731 3:0.0350731 4:0.0350731 5:0.0350731 6:0.0350731 7:0.0350731 8:0.0350731 9:0.0350731 10:0.00257566 11:0.00257566 12:0.00257566 13:0.00257566 14:0.00257566 15:0.00257566 16:0.00257566 17:0.00257566 18:0.00257566 19:0.00294253 20:0.00294253 21:0.00294253 22:0.00294253 23:0.00294253 24:0.00294253 25:0.00294253 26:0.00294253 27:0.00294253 28:0.33146 29:0.33146 30:0.33146 31:0.33146 32:0.33146 33:0.33146 34:0.33146 35:0.33146 36:0.33146 37:0.00291618 38:0.00291618 39:0.00291618 40:0.00291618 41:0.00291618 42:0.00291618 43:0.00291618 44:0.00291618 45:0.00291618 46:0.328492 47:0.328492 48:0.328492 49:0.328492 50:0.328492 51:0.328492 52:0.328492 53:0.328492 54:0.328492 55:0.0301635 56:0.0301635 57:0.0301635 58:0.0301635 59:0.0301635 60:0.0301635 61:0.0301635 62:0.0301635 63:0.0301635 64:0.04781 65:0.04781 66:0.04781 67:0.04781 68:0.04781 69:0.04781 70:0.04781 71:0.04781 72:0.04781 73:0.131752 74:0.131752 75:0.131752 76:0.131752 77:0.131752 78:0.131752 79:0.131752 80:0.131752 81:0.131752 82:0.20883 83:0.20883 84:0.20883 85:0.20883 86:0.20883 87:0.20883 88:0.20883 89:0.20883 90:0.20883 91:0.0311341 92:0.0311341 93:0.0311341 94:0.0311341 95:0.0311341 96:0.0311341 97:0.0311341 98:0.0311341 99:0.0311341 100:0.22175 101:0.22175 102:0.22175 103:0.22175 104:0.22175 105:0.22175 106:0.22175 107:0.22175 108:0.22175 109:0.201343 110:0.201343 111:0.201343 112:0.201343 113:0.201343 114:0.201343 115:0.201343 116:0.201343 117:0.201343 118:0.23002 119:0.23002 120:0.23002 121:0.23002 122:0.23002 123:0.23002 124:0.23002 125:0.23002 126:0.23002 127:0.132516 128:0.132516 129:0.132516 130:0.132516 131:0.132516 132:0.132516 133:0.132516 134:0.132516 135:0.132516 136:0.0101223 137:0.0101223 138:0.0101223 139:0.0101223 140:0.0101223 141:0.0101223 142:0.0101223 143:0.0101223 144:0.0101223 145:0.0119304 146:0.0119304 147:0.0119304 148:0.0119304 149:0.0119304 150:0.0119304 151:0.0119304 152:0.0119304 153:0.0119304 154:0.000911311 155:0.000911311 156:0.000911311 157:0.000911311 158:0.000911311 159:0.000911311 160:0.000911311 161:0.000911311 162:0.000911311 163:0.00290065 164:0.00290065 165:0.00290065 166:0.00290065 167:0.00290065 168:0.00290065 169:0.00290065 170:0.00290065 171:0.00290065 172:0.333106 173:0.333106 174:0.333106 175:0.333106 176:0.333106 177:0.333106 178:0.333106 179:0.333106 180:0.333106 181:0.00290252 182:0.00290252 183:0.00290252 184:0.00290252 185:0.00290252 186:0.00290252 187:0.00290252 188:0.00290252 189:0.00290252 190:0.333321 191:0.333321 192:0.333321 193:0.333321 194:0.333321 195:0.333321 196:0.333321 197:0.333321 198:0.333321 199:0 200:0 201:0 202:0 203:0 204:0 205:0 206:0 207:0 208:0 209:0 210:0 211:0 212:0 213:0 214:0 215:0 216:0 217:0.164157 218:0.164157 219:0.164157 220:0.164157 221:0.164157 222:0.164157 223:0.164157 224:0.164157 225:0.164157 226:0.052284 227:0.052284 228:0.052284 229:0.052284 230:0.052284 231:0.052284 232:0.052284 233:0.052284 234:0.052284 235:0.259964 236:0.259964 237:0.259964 238:0.259964 239:0.259964 240:0.259964 241:0.259964 242:0.259964 243:0.259964 244:0.11768 245:0.11768 246:0.11768 247:0.11768 248:0.11768 249:0.11768 250:0.11768 251:0.11768 252:0.11768 253:0.2156 254:0.2156 255:0.2156 256:0.2156 257:0.2156 258:0.2156 259:0.2156 260:0.2156 261:0.2156 262:0.0975971 263:0.0975971 264:0.0975971 265:0.0975971 266:0.0975971 267:0.0975971 268:0.0975971 269:0.0975971 270:0.0975971 271:0.234023 272:0.234023 273:0.234023 274:0.234023 275:0.234023 276:0.234023 277:0.234023 278:0.234023 279:0.234023 280:0.0183309 281:0.0183309 282:0.0183309 283:0.0183309 284:0.0183309 285:0.0183309 286:0.0183309 287:0.0183309 288:0.0183309 289:0.00927218 290:0.00927218 291:0.00927218 292:0.00927218 293:0.00927218 294:0.00927218 295:0.00927218 296:0.00927218 297:0.00927218 298:0.000726287 299:0.000726287 300:0.000726287 301:0.000726287 302:0.000726287 303:0.000726287 304:0.000726287 305:0.000726287 306:0.000726287 307:0.00227093 308:0.00227093 309:0.00227093 310:0.00227093 311:0.00227093 312:0.00227093 313:0.00227093 314:0.00227093 315:0.00227093 316:0.333196 317:0.333196 318:0.333196 319:0.333196 320:0.333196 321:0.333196 322:0.333196 323:0.333196 324:0.333196 325:0.323467 326:0.323467 327:0.323467 328:0.323467 329:0.323467 330:0.323467 331:0.323467 332:0.323467 333:0.323467 334:0.0377863 335:0.0377863 336:0.0377863 337:0.0377863 338:0.0377863 339:0.0377863 340:0.0377863 341:0.0377863 342:0.0377863 343:0.0065073 344:0.0065073 345:0.0065073 346:0.0065073 347:0.0065073 348:0.0065073 349:0.0065073 350:0.0065073 351:0.0065073 352:0.0707799 353:0.0707799 354:0.0707799 355:0.0707799 356:0.0707799 357:0.0707799 358:0.0707799 359:0.0707799 360:0.0707799 361:0.00068704 362:0.00068704 363:0.00068704 364:0.00068704 365:0.00068704 366:0.00068704 367:0.00068704 368:0.00068704 369:0.00068704 370:0.00747294 371:0.00747294 372:0.00747294 373:0.00747294 374:0.00747294 375:0.00747294 376:0.00747294 377:0.00747294 378:0.00747294 379:0.204156 380:0.204156 381:0.204156 382:0.204156 383:0.204156 384:0.204156 385:0.204156 386:0.204156 387:0.204156 388:0.263392 389:0.263392 390:0.263392 391:0.263392 392:0.263392 393:0.263392 394:0.263392 395:0.263392 396:0.263392 397:0.20396 398:0.20396 399:0.20396 400:0.20396 401:0.20396 402:0.20396 403:0.20396 404:0.20396 405:0.20396 406:0.263139 407:0.263139 408:0.263139 409:0.263139 410:0.263139 411:0.263139 412:0.263139 413:0.263139 414:0.263139 415:0.0162931 416:0.0162931 417:0.0162931 418:0.0162931 419:0.0162931 420:0.0162931 421:0.0162931 422:0.0162931 423:0.0162931 424:0.00204117 425:0.00204117 426:0.00204117 427:0.00204117 428:0.00204117 429:0.00204117 430:0.00204117 431:0.00204117 432:0.00204117 433:0.0490782 434:0.0490782 435:0.0490782 436:0.0490782 437:0.0490782 438:0.0490782 439:0.0490782 440:0.0490782 441:0.0490782 442:0.048304 443:0.048304 444:0.048304 445:0.048304 446:0.048304 447:0.048304 448:0.048304 449:0.048304 450:0.048304 451:0.19927 452:0.19927 453:0.19927 454:0.19927 455:0.19927 456:0.19927 457:0.19927 458:0.19927 459:0.19927 460:0.258187 461:0.258187 462:0.258187 463:0.258187 464:0.258187 465:0.258187 466:0.258187 467:0.258187 468:0.258187 469:0.0826399 470:0.0826399 471:0.0826399 472:0.0826399 473:0.0826399 474:0.0826399 475:0.0826399 476:0.0826399 477:0.0826399 478:0.107074 479:0.107074 480:0.107074 481:0.107074 482:0.107074 483:0.107074 484:0.107074 485:0.107074 486:0.107074 487:0.0869431 488:0.0869431 489:0.0869431 490:0.0869431 491:0.0869431 492:0.0869431 493:0.0869431 494:0.0869431 495:0.0869431 496:0.291989 497:0.291989 498:0.291989 499:0.291989 500:0.291989 501:0.291989 502:0.291989 503:0.291989 504:0.291989 505:0.0950259 506:0.0950259 507:0.0950259 508:0.0950259 509:0.0950259 510:0.0950259 511:0.0950259 512:0.0950259 513:0.0950259 514:0.319135 515:0.319135 516:0.319135 517:0.319135 518:0.319135 519:0.319135 520:0.319135 521:0.319135 522:0.319135 523:0.00428206 524:0.00428206 525:0.00428206 526:0.00428206 527:0.00428206 528:0.00428206 529:0.00428206 530:0.00428206 531:0.00428206 532:0.0146929 533:0.0146929 534:0.0146929 535:0.0146929 536:0.0146929 537:0.0146929 538:0.0146929 539:0.0146929 540:0.0146929 541:0.00209236 542:0.00209236 543:0.00209236 544:0.00209236 545:0.00209236 546:0.00209236 547:0.00209236 548:0.00209236 549:0.00209236 550:0.00209236 551:0.00209236 552:0.00209236 553:0.00209236 554:0.00209236 555:0.00209236 556:0.00209236 557:0.00209236 558:0.00209236 559:0.235693 560:0.235693 561:0.235693 562:0.235693 563:0.235693 564:0.235693 565:0.235693 566:0.235693 567:0.235693 568:0.235693 569:0.235693 570:0.235693 571:0.235693 572:0.235693 573:0.235693 574:0.235693 575:0.235693 576:0.235693 577:0.235693 578:0.235693 579:0.235693 580:0.235693 581:0.235693 582:0.235693 583:0.235693 584:0.235693 585:0.235693 586:0.235693 587:0.235693 588:0.235693 589:0.235693 590:0.235693 591:0.235693 592:0.235693 593:0.235693 594:0.235693 595:0.00207363 596:0.00207363 597:0.00207363 598:0.00207363 599:0.00207363 600:0.00207363 601:0.00207363 602:0.00207363 603:0.00207363 604:0.00207363 605:0.00207363 606:0.00207363 607:0.00207363 608:0.00207363 609:0.00207363 610:0.00207363 611:0.00207363 612:0.00207363 613:0.00295881 614:0.00295881 615:0.00295881 616:0.00295881 617:0.00295881 618:0.00295881 619:0.00295881 620:0.00295881 621:0.00295881 622:0.00295881 623:0.00295881 624:0.00295881 625:0.00295881 626:0.00295881 627:0.00295881 628:0.00295881 629:0.00295881 630:0.00295881 631:0.00295881 632:0.00295881 633:0.00295881 634:0.00295881 635:0.00295881 636:0.00295881 637:0.00295881 638:0.00295881 639:0.00295881 640:0.333294 641:0.333294 642:0.333294 643:0.333294 644:0.333294 645:0.333294 646:0.333294 647:0.333294 648:0.333294 649:0.233126 650:0.233126 651:0.233126 652:0.233126 653:0.233126 654:0.233126 655:0.233126 656:0.233126 657:0.233126 658:0.233126 659:0.233126 660:0.233126 661:0.233126 662:0.233126 663:0.233126 664:0.233126 665:0.233126 666:0.233126 667:0.0347562 668:0.0347562 669:0.0347562 670:0.0347562 671:0.0347562 672:0.0347562 673:0.0347562 674:0.0347562 675:0.0347562 676:0.0347562 677:0.0347562 678:0.0347562 679:0.0347562 680:0.0347562 681:0.0347562 682:0.0347562 683:0.0347562 684:0.0347562 685:0.0327716 686:0.0327716 687:0.0327716 688:0.0327716 689:0.0327716 690:0.0327716 691:0.0327716 692:0.0327716 693:0.0327716 694:0.0327716 695:0.0327716 696:0.0327716 697:0.0327716 698:0.0327716 699:0.0327716 700:0.0327716 701:0.0327716 702:0.0327716 703:0.233413 704:0.233413 705:0.233413 706:0.233413 707:0.233413 708:0.233413 709:0.233413 710:0.233413 711:0.233413 712:0.233413 713:0.233413 714:0.233413 715:0.233413 716:0.233413 717:0.233413 718:0.233413 719:0.233413 720:0.233413 721:0.174502 722:0.174502 723:0.174502 724:0.174502 725:0.174502 726:0.174502 727:0.174502 728:0.174502 729:0.174502 730:0.174502 731:0.174502 732:0.174502 733:0.174502 734:0.174502 735:0.174502 736:0.174502 737:0.174502 738:0.174502 739:0.158444 740:0.158444 741:0.158444 742:0.158444 743:0.158444 744:0.158444 745:0.158444 746:0.158444 747:0.158444 748:0.158444 749:0.158444 750:0.158444 751:0.158444 752:0.158444 753:0.158444 754:0.158444 755:0.158444 756:0.158444 
885.1452936746317 1:0.0272617 2:0.0272617 3:0.0272617 4:0.0272617 5:0.0272617 6:0.0272617 7:0.0272617 8:0.0272617 9:0.0272617 10:0.00135196 11:0.00135196 12:0.00135196 13:0.00135196 14:0.00135196 15:0.00135196 16:0.00135196 17:0.00135196 18:0.00135196 19:0.00432617 20:0.00432617 21:0.00432617 22:0.00432617 23:0.00432617 24:0.00432617 25:0.00432617 26:0.00432617 27:0.00432617 28:0.332186 29:0.332186 30:0.332186 31:0.332186 32:0.332186 33:0.332186 34:0.332186 35:0.332186 36:0.332186 37:0.00427676 38:0.00427676 39:0.00427676 40:0.00427676 41:0.00427676 42:0.00427676 43:0.00427676 44:0.00427676 45:0.00427676 46:0.328392 47:0.328392 48:0.328392 49:0.328392 50:0.328392 51:0.328392 52:0.328392 53:0.328392 54:0.328392 55:0.0307613 56:0.0307613 57:0.0307613 58:0.0307613 59:0.0307613 60:0.0307613 61:0.0307613 62:0.0307613 63:0.0307613 64:0.0480159 65:0.0480159 66:0.0480159 67:0.0480159 68:0.0480159 69:0.0480159 70:0.0480159 71:0.0480159 72:0.0480159 73:0.0967197 74:0.0967197 75:0.0967197 76:0.0967197 77:0.0967197 78:0.0967197 79:0.0967197 80:0.0967197 81:0.0967197 82:0.150972 83:0.150972 84:0.150972 85:0.150972 86:0.150972 87:0.150972 88:0.150972 89:0.150972 90:0.150972 91:0.066385 92:0.066385 93:0.066385 94:0.066385 95:0.066385 96:0.066385 97:0.066385 98:0.066385 99:0.066385 100:0.273051 101:0.273051 102:0.273051 103:0.273051 104:0.273051 105:0.273051 106:0.273051 107:0.273051 108:0.273051 109:0.258896 110:0.258896 111:0.258896 112:0.258896 113:0.258896 114:0.258896 115:0.258896 116:0.258896 117:0.258896 118:0.110834 119:0.110834 120:0.110834 121:0.110834 122:0.110834 123:0.110834 124:0.110834 125:0.110834 126:0.110834 127:0.178309 128:0.178309 129:0.178309 130:0.178309 131:0.178309 132:0.178309 133:0.178309 134:0.178309 135:0.178309 136:0.00239744 137:0.00239744 138:0.00239744 139:0.00239744 140:0.00239744 141:0.00239744 142:0.00239744 143:0.00239744 144:0.00239744 145:0.0120808 146:0.0120808 147:0.0120808 148:0.0120808 149:0.0120808 150:0.0120808 151:0.0120808 152:0.0120808 153:0.0120808 154:0.000162432 155:0.000162432 156:0.000162432 157:0.000162432 158:0.000162432 159:0.000162432 160:0.000162432 161:0.000162432 162:0.000162432 163:0.00321739 164:0.00321739 165:0.00321739 166:0.00321739 167:0.00321739 168:0.00321739 169:0.00321739 170:0.00321739 171:0.00321739 172:0.333099 173:0.333099 174:0.333099 175:0.333099 176:0.333099 177:0.333099 178:0.333099 179:0.333099 180:0.333099 181:0.00321943 182:0.00321943 183:0.00321943 184:0.00321943 185:0.00321943 186:0.00321943 187:0.00321943 188:0.00321943 189:0.00321943 190:0.33331 191:0.33331 192:0.33331 193:0.33331 194:0.33331 195:0.33331 196:0.33331 197:0.33331 198:0.33331 199:1.47759e-05 200:1.47759e-05 201:1.47759e-05 202:1.47759e-05 203:1.47759e-05 204:1.47759e-05 205:1.47759e-05 206:1.47759e-05 207:1.47759e-05 208:0.00226247 209:0.00226247 210:0.00226247 211:0.00226247 212:0.00226247 213:0.00226247 214:0.00226247 215:0.00226247 216:0.00226247 217:0.148991 218:0.148991 219:0.148991 220:0.148991 221:0.148991 222:0.148991 223:0.148991 224:0.148991 225:0.148991 226:0.0887369 227:0.0887369 228:0.0887369 229:0.0887369 230:0.0887369 231:0.0887369 232:0.0887369 233:0.0887369 234:0.0887369 235:0.261107 236:0.261107 237:0.261107 238:0.261107 239:0.261107 240:0.261107 241:0.261107 242:0.261107 243:0.261107 244:0.113409 245:0.113409 246:0.113409 247:0.113409 248:0.113409 249:0.113409 250:0.113409 251:0.113409 252:0.113409 253:0.158237 254:0.158237 255:0.158237 256:0.158237 257:0.158237 258:0.158237 259:0.158237 260:0.158237 261:0.158237 262:0.0687287 263:0.0687287 264:0.0687287 265:0.0687287 266:0.0687287 267:0.0687287 268:0.0687287 269:0.0687287 270:0.0687287 271:0.285215 272:0.285215 273:0.285215 274:0.285215 275:0.285215 276:0.285215 277:0.285215 278:0.285215 279:0.285215 280:0.000942805 281:0.000942805 282:0.000942805 283:0.000942805 284:0.000942805 285:0.000942805 286:0.000942805 287:0.000942805 288:0.000942805 289:0.0105564 290:0.0105564 291:0.0105564 292:0.0105564 293:0.0105564 294:0.0105564 295:0.0105564 296:0.0105564 297:0.0105564 298:3.48951e-05 299:3.48951e-05 300:3.48951e-05 301:3.48951e-05 302:3.48951e-05 303:3.48951e-05 304:3.48951e-05 305:3.48951e-05 306:3.48951e-05 307:0.00196029 308:0.00196029 309:0.00196029 310:0.00196029 311:0.00196029 312:0.00196029 313:0.00196029 314:0.00196029 315:0.00196029 316:0.33316 317:0.33316 318:0.33316 319:0.33316 320:0.33316 321:0.33316 322:0.33316 323:0.33316 324:0.33316 325:0.270521 326:0.270521 327:0.270521 328:0.270521 329:0.270521 330:0.270521 331:0.270521 332:0.270521 333:0.270521 334:0.0180346 335:0.0180346 336:0.0180346 337:0.0180346 338:0.0180346 339:0.0180346 340:0.0180346 341:0.0180346 342:0.0180346 343:0.18908 344:0.18908 345:0.18908 346:0.18908 347:0.18908 348:0.18908 349:0.18908 350:0.18908 351:0.18908 352:0.0430433 353:0.0430433 354:0.0430433 355:0.0430433 356:0.0430433 357:0.0430433 358:0.0430433 359:0.0430433 360:0.0430433 361:0.0165935 362:0.0165935 363:0.0165935 364:0.0165935 365:0.0165935 366:0.0165935 367:0.0165935 368:0.0165935 369:0.0165935 370:0.00377744 371:0.00377744 372:0.00377744 373:0.00377744 374:0.00377744 375:0.00377744 376:0.00377744 377:0.00377744 378:0.00377744 379:0.222029 380:0.222029 381:0.222029 382:0.222029 383:0.222029 384:0.222029 385:0.222029 386:0.222029 387:0.222029 388:0.248042 389:0.248042 390:0.248042 391:0.248042 392:0.248042 393:0.248042 394:0.248042 395:0.248042 396:0.248042 397:0.222131 398:0.222131 399:0.222131 400:0.222131 401:0.222131 402:0.222131 403:0.222131 404:0.222131 405:0.222131 406:0.248156 407:0.248156 408:0.248156 409:0.248156 410:0.248156 411:0.248156 412:0.248156 413:0.248156 414:0.248156 415:0.0136973 416:0.0136973 417:0.0136973 418:0.0136973 419:0.0136973 420:0.0136973 421:0.0136973 422:0.0136973 423:0.0136973 424:0.000305021 425:0.000305021 426:0.000305021 427:0.000305021 428:0.000305021 429:0.000305021 430:0.000305021 431:0.000305021 432:0.000305021 433:0.0506051 434:0.0506051 435:0.0506051 436:0.0506051 437:0.0506051 438:0.0506051 439:0.0506051 440:0.0506051 441:0.0506051 442:0.0382247 443:0.0382247 444:0.0382247 445:0.0382247 446:0.0382247 447:0.0382247 448:0.0382247 449:0.0382247 450:0.0382247 451:0.176148 452:0.176148 453:0.176148 454:0.176148 455:0.176148 456:0.176148 457:0.176148 458:0.176148 459:0.176148 460:0.275792 461:0.275792 462:0.275792 463:0.275792 464:0.275792 465:0.275792 466:0.275792 467:0.275792 468:0.275792 469:0.0771375 470:0.0771375 471:0.0771375 472:0.0771375 473:0.0771375 474:0.0771375 475:0.0771375 476:0.0771375 477:0.0771375 478:0.120773 479:0.120773 480:0.120773 481:0.120773 482:0.120773 483:0.120773 484:0.120773 485:0.120773 486:0.120773 487:0.137293 488:0.137293 489:0.137293 490:0.137293 491:0.137293 492:0.137293 493:0.137293 494:0.137293 495:0.137293 496:0.267816 497:0.267816 498:0.267816 499:0.267816 500:0.267816 501:0.267816 502:0.267816 503:0.267816 504:0.267816 505:0.150926 506:0.150926 507:0.150926 508:0.150926 509:0.150926 510:0.150926 511:0.150926 512:0.150926 513:0.150926 514:0.294411 515:0.294411 516:0.294411 517:0.294411 518:0.294411 519:0.294411 520:0.294411 521:0.294411 522:0.294411 523:0.00329831 524:0.00329831 525:0.00329831 526:0.00329831 527:0.00329831 528:0.00329831 529:0.00329831 530:0.00329831 531:0.00329831 532:0.0405444 533:0.0405444 534:0.0405444 535:0.0405444 536:0.0405444 537:0.0405444 538:0.0405444 539:0.0405444 540:0.0405444 541:0 542:0 543:0 544:0 545:0 546:0 547:0 548:0 549:0 550:0 551:0 552:0 553:0 554:0 555:0 556:0 557:0 558:0 559:0 560:0 561:0 562:0 563:0 564:0 565:0 566:0 567:0 568:0 569:0 570:0 571:0 572:0 573:0 574:0 575:0 576:0 577:0 578:0 579:0 580:0 581:0 582:0 583:0 584:0 585:0 586:0 587:0 588:0 589:0 590:0 591:0 592:0 593:0 594:0 595:0.333333 596:0.333333 597:0.333333 598:0.333333 599:0.333333 600:0.333333 601:0.333333 602:0.333333 603:0.333333 604:0 605:0 606:0 607:0 608:0 609:0 610:0 611:0 612:0 613:8.05165e-08 614:8.05165e-08 615:8.05165e-08 616:8.05165e-08 617:8.05165e-08 618:8.05165e-08 619:8.05165e-08 620:8.05165e-08 621:8.05165e-08 622:0 623:0 624:0 625:0 626:0 627:0 628:0 629:0 630:0 631:0.333333 632:0.333333 633:0.333333 634:0.333333 635:0.333333 636:0.333333 637:0.333333 638:0.333333 639:0.333333 640:0.000341903 641:0.000341903 642:0.000341903 643:0.000341903 644:0.000341903 645:0.000341903 646:0.000341903 647:0.000341903 648:0.000341903 649:0 650:0 651:0 652:0 653:0 654:0 655:0 656:0 657:0 658:0 659:0 660:0 661:0 662:0 663:0 664:0 665:0 666:0 667:0 668:0 669:0 670:0 671:0 672:0 673:0 674:0 675:0 676:0 677:0 678:0 679:0 680:0 681:0 682:0 683:0 684:0 685:0 686:0 687:0 688:0 689:0 690:0 691:0 692:0 693:0 694:0 695:0 696:0 697:0 698:0 699:0 700:0 701:0 702:0 703:0 704:0 705:0 706:0 707:0 708:0 709:0 710:0 711:0 712:0 713:0 714:0 715:0 716:0 717:0 718:0 719:0 720:0 721:0 722:0 723:0 724:0 725:0 726:0 727:0 728:0 729:0 730:0 731:0 732:0 733:0 734:0 735:0 736:0 737:0 738:0 739:0 740:0 741:0 742:0 743:0 744:0 745:0 746:0 747:0 748:0 749:0 750:0 751:0 752:0 753:0 754:0 755:0 756:0 
386.8015548576648 1:0.00922621 2:0.00922621 3:0.00922621 4:0.00922621 5:0.00922621 6:0.00922621 7:0.00922621 8:0.00922621 9:0.00922621 10:0.000671324 11:0.000671324 12:0.000671324 13:0.000671324 14:0.000671324 15:0.000671324 16:0.000671324 17:0.000671324 18:0.000671324 19:0.00134971 20:0.00134971 21:0.00134971 22:0.00134971 23:0.00134971 24:0.00134971 25:0.00134971 26:0.00134971 27:0.00134971 28:0.333202 29:0.333202 30:0.333202 31:0.333202 32:0.333202 33:0.333202 34:0.333202 35:0.333202 36:0.333202 37:0.00134416 38:0.00134416 39:0.00134416 40:0.00134416 41:0.00134416 42:0.00134416 43:0.00134416 44:0.00134416 45:0.00134416 46:0.331831 47:0.331831 48:0.331831 49:0.331831 50:0.331831 51:0.331831 52:0.331831 53:0.331831 54:0.331831 55:0.0132879 56:0.0132879 57:0.0132879 58:0.0132879 59:0.0132879 60:0.0132879 61:0.0132879 62:0.0132879 63:0.0132879 64:0.0286482 65:0.0286482 66:0.0286482 67:0.0286482 68:0.0286482 69:0.0286482 70:0.0286482 71:0.0286482 72:0.0286482 73:0.140028 74:0.140028 75:0.140028 76:0.140028 77:0.140028 78:0.140028 79:0.140028 80:0.140028 81:0.140028 82:0.301897 83:0.301897 84:0.301897 85:0.301897 86:0.301897 87:0.301897 88:0.301897 89:0.301897 90:0.301897 91:0.0138167 92:0.0138167 93:0.0138167 94:0.0138167 95:0.0138167 96:0.0138167 97:0.0138167 98:0.0138167 99:0.0138167 100:0.0130634 101:0.0130634 102:0.0130634 103:0.0130634 104:0.0130634 105:0.0130634 106:0.0130634 107:0.0130634 108:0.0130634 109:0.141112 110:0.141112 111:0.141112 112:0.141112 113:0.141112 114:0.141112 115:0.141112 116:0.141112 117:0.141112 118:0.29946 119:0.29946 120:0.29946 121:0.29946 122:0.29946 123:0.29946 124:0.29946 125:0.29946 126:0.29946 127:0.0202894 128:0.0202894 129:0.0202894 130:0.0202894 131:0.0202894 132:0.0202894 133:0.0202894 134:0.0202894 135:0.0202894 136:0.0333263 137:0.0333263 138:0.0333263 139:0.0333263 140:0.0333263 141:0.0333263 142:0.0333263 143:0.0333263 144:0.0333263 145:0.000330202 146:0.000330202 147:0.000330202 148:0.000330202 149:0.000330202 150:0.000330202 151:0.000330202 152:0.000330202 153:0.000330202 154:0.000542372 155:0.000542372 156:0.000542372 157:0.000542372 158:0.000542372 159:0.000542372 160:0.000542372 161:0.000542372 162:0.000542372 163:0.000677226 164:0.000677226 165:0.000677226 166:0.000677226 167:0.000677226 168:0.000677226 169:0.000677226 170:0.000677226 171:0.000677226 172:0.333332 173:0.333332 174:0.333332 175:0.333332 176:0.333332 177:0.333332 178:0.333332 179:0.333332 180:0.333332 181:0.000676533 182:0.000676533 183:0.000676533 184:0.000676533 185:0.000676533 186:0.000676533 187:0.000676533 188:0.000676533 189:0.000676533 190:0.332991 191:0.332991 192:0.332991 193:0.332991 194:0.332991 195:0.332991 196:0.332991 197:0.332991 198:0.332991 199:0.00241271 200:0.00241271 201:0.00241271 202:0.00241271 203:0.00241271 204:0.00241271 205:0.00241271 206:0.00241271 207:0.00241271 208:0.0148913 209:0.0148913 210:0.0148913 211:0.0148913 212:0.0148913 213:0.0148913 214:0.0148913 215:0.0148913 216:0.0148913 217:0.220845 218:0.220845 219:0.220845 220:0.220845 221:0.220845 222:0.220845 223:0.220845 224:0.220845 225:0.220845 226:0.103925 227:0.103925 228:0.103925 229:0.103925 230:0.103925 231:0.103925 232:0.103925 233:0.103925 234:0.103925 235:0.19051 236:0.19051 237:0.19051 238:0.19051 239:0.19051 240:0.19051 241:0.19051 242:0.19051 243:0.19051 244:0.123468 245:0.123468 246:0.123468 247:0.123468 248:0.123468 249:0.123468 250:0.123468 251:0.123468 252:0.123468 253:0.109339 254:0.109339 255:0.109339 256:0.109339 257:0.109339 258:0.109339 259:0.109339 260:0.109339 261:0.109339 262:0.0708617 263:0.0708617 264:0.0708617 265:0.0708617 266:0.0708617 267:0.0708617 268:0.0708617 269:0.0708617 270:0.0708617 271:0.306793 272:0.306793 273:0.306793 274:0.306793 275:0.306793 276:0.306793 277:0.306793 278:0.306793 279:0.306793 280:0.00361456 281:0.00361456 282:0.00361456 283:0.00361456 284:0.00361456 285:0.00361456 286:0.00361456 287:0.00361456 288:0.00361456 289:0.00561189 290:0.00561189 291:0.00561189 292:0.00561189 293:0.00561189 294:0.00561189 295:0.00561189 296:0.00561189 297:0.00561189 298:6.6118e-05 299:6.6118e-05 300:6.6118e-05 301:6.6118e-05 302:6.6118e-05 303:6.6118e-05 304:6.6118e-05 305:6.6118e-05 306:6.6118e-05 307:0.00101876 308:0.00101876 309:0.00101876 310:0.00101876 311:0.00101876 312:0.00101876 313:0.00101876 314:0.00101876 315:0.00101876 316:0.333285 317:0.333285 318:0.333285 319:0.333285 320:0.333285 321:0.333285 322:0.333285 323:0.333285 324:0.333285 325:0.0293043 326:0.0293043 327:0.0293043 328:0.0293043 329:0.0293043 330:0.0293043 331:0.0293043 332:0.0293043 333:0.0293043 334:0.0327708 335:0.0327708 336:0.0327708 337:0.0327708 338:0.0327708 339:0.0327708 340:0.0327708 341:0.0327708 342:0.0327708 343:0.312889 344:0.312889 345:0.312889 346:0.312889 347:0.312889 348:0.312889 349:0.312889 350:0.312889 351:0.312889 352:0.106203 353:0.106203 354:0.106203 355:0.106203 356:0.106203 357:0.106203 358:0.106203 359:0.106203 360:0.106203 361:0.126231 362:0.126231 363:0.126231 364:0.126231 365:0.126231 366:0.126231 367:0.126231 368:0.126231 369:0.126231 370:0.0428464 371:0.0428464 372:0.0428464 373:0.0428464 374:0.0428464 375:0.0428464 376:0.0428464 377:0.0428464 378:0.0428464 379:0.198563 380:0.198563 381:0.198563 382:0.198563 383:0.198563 384:0.198563 385:0.198563 386:0.198563 387:0.198563 388:0.232193 389:0.232193 390:0.232193 391:0.232193 392:0.232193 393:0.232193 394:0.232193 395:0.232193 396:0.232193 397:0.216139 398:0.216139 399:0.216139 400:0.216139 401:0.216139 402:0.216139 403:0.216139 404:0.216139 405:0.216139 406:0.252747 407:0.252747 408:0.252747 409:0.252747 410:0.252747 411:0.252747 412:0.252747 413:0.252747 414:0.252747 415:0.0223657 416:0.0223657 417:0.0223657 418:0.0223657 419:0.0223657 420:0.0223657 421:0.0223657 422:0.0223657 423:0.0223657 424:0.00372193 425:0.00372193 426:0.00372193 427:0.00372193 428:0.00372193 429:0.00372193 430:0.00372193 431:0.00372193 432:0.00372193 433:0.0358003 434:0.0358003 435:0.0358003 436:0.0358003 437:0.0358003 438:0.0358003 439:0.0358003 440:0.0358003 441:0.0358003 442:0.00480683 443:0.00480683 444:0.00480683 445:0.00480683 446:0.00480683 447:0.00480683 448:0.00480683 449:0.00480683 450:0.00480683 451:0.164916 452:0.164916 453:0.164916 454:0.164916 455:0.164916 456:0.164916 457:0.164916 458:0.164916 459:0.164916 460:0.287418 461:0.287418 462:0.287418 463:0.287418 464:0.287418 465:0.287418 466:0.287418 467:0.287418 468:0.287418 469:0.104667 470:0.104667 471:0.104667 472:0.104667 473:0.104667 474:0.104667 475:0.104667 476:0.104667 477:0.104667 478:0.182415 479:0.182415 480:0.182415 481:0.182415 482:0.182415 483:0.182415 484:0.182415 485:0.182415 486:0.182415 487:0.0835276 488:0.0835276 489:0.0835276 490:0.0835276 491:0.0835276 492:0.0835276 493:0.0835276 494:0.0835276 495:0.0835276 496:0.244753 497:0.244753 498:0.244753 499:0.244753 500:0.244753 501:0.244753 502:0.244753 503:0.244753 504:0.244753 505:0.107193 506:0.107193 507:0.107193 508:0.107193 509:0.107193 510:0.107193 511:0.107193 512:0.107193 513:0.107193 514:0.314098 515:0.314098 516:0.314098 517:0.314098 518:0.314098 519:0.314098 520:0.314098 521:0.314098 522:0.314098 523:0.0230293 524:0.0230293 525:0.0230293 526:0.0230293 527:0.0230293 528:0.0230293 529:0.0230293 530:0.0230293 531:0.0230293 532:0.0208001 533:0.0208001 534:0.0208001 535:0.0208001 536:0.0208001 537:0.0208001 538:0.0208001 539:0.0208001 540:0.0208001 541:0 542:0 543:0 544:0 545:0 546:0 547:0 548:0 549:0 550:0 551:0 552:0 553:0 554:0 555:0 556:0 557:0 558:0 559:0 560:0 561:0 562:0 563:0 564:0 565:0 566:0 567:0 568:0 569:0 570:0 571:0 572:0 573:0 574:0 575:0 576:0 577:0 578:0 579:0 580:0 581:0 582:0 583:0 584:0 585:0 586:0 587:0 588:0 589:0 590:0 591:0 592:0 593:0 594:0 595:0.333333 596:0.333333 597:0.333333 598:0.333333 599:0.333333 600:0.333333 601:0.333333 602:0.333333 603:0.333333 604:0 605:0 606:0 607:0 608:0 609:0 610:0 611:0 612:0 613:8.05165e-08 614:8.05165e-08 615:8.05165e-08 616:8.05165e-08 617:8.05165e-08 618:8.05165e-08 619:8.05165e-08 620:8.05165e-08 621:8.05165e-08 622:0 623:0 624:0 625:0 626:0 627:0 628:0 629:0 630:0 631:0.333333 632:0.333333 633:0.333333 634:0.333333 635:0.333333 636:0.333333 637:0.333333 638:0.333333 639:0.333333 640:0.000341903 641:0.000341903 642:0.000341903 643:0.000341903 644:0.000341903 645:0.000341903 646:0.000341903 647:0.000341903 648:0.000341903 649:0 650:0 651:0 652:0 653:0 654:0 655:0 656:0 657:0 658:0 659:0 660:0 661:0 662:0 663:0 664:0 665:0 666:0 667:0 668:0 669:0 670:0 671:0 672:0 673:0 674:0 675:0 676:0 677:0 678:0 679:0 680:0 681:0 682:0 683:0 684:0 685:0 686:0 687:0 688:0 689:0 690:0 691:0 692:0 693:0 694:0 695:0 696:0 697:0 698:0 699:0 700:0 701:0 702:0 703:0 704:0 705:0 706:0 707:0 708:0 709:0 710:0 711:0 712:0 713:0 714:0 715:0 716:0 717:0 718:0 719:0 720:0 721:0 722:0 723:0 724:0 725:0 726:0 727:0 728:0 729:0 730:0 731:0 732:0 733:0 734:0 735:0 736:0 737:0 738:0 739:0 740:0 741:0 742:0 743:0 744:0 745:0 746:0 747:0 748:0 749:0 750:0 751:0 752:0 753:0 754:0 755:0 756:0 
